{"frame_net.0.weight": [[0.11076115816831589, 0.03404920548200607, 0.05497482046484947, 0.01046573556959629, -0.027812868356704712, 0.04990396276116371, -0.003927811048924923, -0.008446473628282547, 0.10625436156988144, -0.07735727727413177, -0.16161851584911346, 0.03853735700249672, 0.02816840074956417, 0.1592034101486206, 0.008859427645802498, 0.014641523361206055, -0.057053353637456894, -0.11352823674678802, 0.02877488173544407, 0.021230610087513924, 0.04560109227895737, -0.1406029313802719, -0.16169895231723785, 0.27752771973609924, 0.149658203125, 0.10237656533718109, 0.22098462283611298, -0.09631314873695374, 0.2554037570953369, 0.10982713103294373, 0.1960003525018692, -0.0535343699157238, 0.1891649067401886, -0.007070903200656176, -0.1265927404165268, 0.09858588129281998, -0.021685000509023666, 0.159305140376091, 0.11711147427558899, -0.028790852054953575, -0.21202966570854187, -0.11613330990076065, 0.12969642877578735, 0.04921174421906471, 0.008005896583199501, 0.0021540657617151737, -0.21016938984394073, 0.3780246078968048, 0.18960162997245789, 0.0036594427656382322, 0.03061436116695404, 0.12376269698143005, -0.11729846894741058, 0.2934125065803528, 0.11369244754314423, 0.2647795081138611, 0.20436623692512512, -0.021277353167533875, 0.3373522162437439, 0.2729327976703644, 0.22836849093437195, 0.19308677315711975, 0.11094951629638672, 0.16838251054286957, -0.16357426345348358, -0.07098217308521271, 0.16720348596572876, -0.05061965063214302, -0.07321394979953766, 0.11011908948421478, 0.018250439316034317, 0.2327449768781662, 0.21396654844284058, 0.06208472326397896, 0.004386362619698048, 0.19005036354064941, -0.3149608373641968, -0.23086927831172943, -0.2907782793045044, -0.24246598780155182, 0.0783248320221901, -0.10950522869825363, -0.24714705348014832, -0.021854260936379433, 0.007169815246015787, -0.26812535524368286, -0.21033814549446106, 0.04507838189601898, -0.0632195845246315, -0.05193139240145683, 0.3480556905269623, 0.28183501958847046, -0.08625086396932602, 0.04316549003124237, 0.2094198316335678, -0.03408883512020111, 0.36627593636512756, 0.08561775833368301, 0.43120405077934265, 0.22745472192764282, -0.18810603022575378, -0.2517322301864624, -0.4651374816894531, -0.45267581939697266, -0.14027251303195953, -0.3670142889022827, -0.3480161428451538, -0.1990145742893219, 0.020778579637408257, 0.0777190551161766, -0.1309821903705597, -0.11508636921644211, -0.12760335206985474, -0.12478689104318619, -0.3669838607311249, -0.1229490116238594, 0.19150498509407043, -0.06679749488830566, 0.040920816361904144, 0.0004955256590619683, 0.2954852879047394, 0.27841222286224365, -0.19035087525844574, -0.28159791231155396, 0.099119633436203, -0.22298917174339294, 0.2586122155189514, -0.220045268535614, -0.7198588848114014, 0.25913068652153015, -0.3049277067184448, -0.2683728337287903, -0.41494497656822205, -0.5051188468933105, -0.7119178771972656, -0.2020711749792099, 0.1843302696943283, -0.03237100690603256, -0.2610795199871063, -0.03177634999155998, -0.013213679194450378, -0.03032843768596649, -0.10547613352537155, 0.40268710255622864, -0.008800248615443707, 0.010644985362887383, 0.026310628280043602, 0.041144344955682755, 0.027846336364746094, -0.04041105508804321, 0.012826151214540005, -0.021921249106526375, -0.0055849589407444, -0.03814658895134926, 0.046421654522418976, -0.037405580282211304, 0.027238158509135246, 0.017911020666360855, 0.016561288386583328, -0.02755388244986534, 0.046324461698532104, 0.011199518106877804, 0.006556104402989149, -0.044912904500961304, 0.021394401788711548, -0.007645757868885994, -0.02334817498922348, 0.04377597197890282, 0.011362522840499878, -0.028197577223181725, -0.02579522877931595, -0.002433856949210167, -0.09128949046134949, -0.013023209758102894, -0.029079189524054527, -0.017452504485845566, -0.03807445988059044, 0.018175674602389336, 0.03944874182343483, -0.04798024520277977, 0.011836591176688671, 0.026327956467866898, 0.00924140028655529, -0.01814979314804077, 0.026600634679198265, 0.026782631874084473, 0.019057096913456917, -0.008955592289566994, -0.013495522551238537, 0.005452252458781004, -0.009003126993775368, -0.015187540091574192, 0.03257700055837631, 0.043799057602882385, -0.005045372527092695, -0.011410840786993504, -0.2651759386062622, -0.0030430136248469353, 0.012252493761479855, 0.014282028190791607, -0.046289052814245224, -0.018807904794812202, 0.042918894439935684, 0.019853560253977776, -0.0025348614435642958, -0.030726922675967216, -0.031180474907159805, -0.04565250873565674, -0.016612583771348, 0.017210999503731728, 0.03249621018767357, 0.023530276492238045, -0.045049961656332016, -0.03064827062189579, -0.008043081499636173, 0.049300696700811386, 0.00737242866307497, -0.013198371045291424, 0.02108488231897354, -0.019411521032452583, -0.17727918922901154, 0.0371984988451004, -0.023173749446868896, -0.010216731578111649, -0.05069991946220398, 0.03410919010639191, 0.03861263766884804, 0.018573999404907227, -0.03553638607263565, -0.05029911547899246, -0.04139247536659241, 0.03800440579652786, 0.024468455463647842, 0.042887039482593536, 0.0266988817602396, 0.012898772023618221, -0.0004990815068595111, -0.03875897824764252, -0.04366515576839447, -0.04766978323459625, -0.1945391446352005, -0.27151942253112793, -0.6345213651657104, 0.03417776897549629, 0.08288820087909698, -0.6943178176879883, -0.4764258861541748, 0.007926381193101406, -0.0399174764752388, 0.1636187732219696, -0.2630384564399719, -0.018032366409897804, 0.09068352729082108, -0.05629359930753708, -0.5403009653091431, -0.165713369846344, 0.32316625118255615, -0.13965092599391937, -0.07196792215108871, 0.11587376147508621, 0.32535237073898315, -1.121849775314331, 0.31830117106437683, -0.3169328272342682, -0.039263881742954254, 0.056573137640953064, 0.03631842881441116, -0.3098283112049103, -0.2874722182750702, -0.3953357934951782, -0.13674874603748322, -0.48465827107429504, -0.07632815092802048, 0.06408989429473877, -0.7714497447013855, -0.3373231589794159, -0.3633621335029602, -0.06843404471874237, -0.17628441751003265, -0.4250844717025757, 0.25901928544044495, -0.19723863899707794, -0.11437059193849564, -0.16951055824756622, 0.14913339912891388, -0.651067852973938, -0.3377287685871124, 0.218448206782341, 0.012609442695975304, -0.1133350059390068, 0.03536898270249367, -0.22772279381752014, -0.03660837933421135, 0.25553274154663086, 0.3724795877933502, 0.2935740351676941, -0.07135073095560074, -0.006726347841322422, -0.029710905626416206, 0.08423854410648346, 0.08902381360530853, 0.5704993009567261, 0.32754743099212646, -0.08321390300989151, -0.136740580201149, -0.07233498990535736, -0.2514914572238922, -0.33357834815979004, 0.19519245624542236, -0.26038670539855957, -0.5207205414772034, 0.49549922347068787, -0.13403122127056122, -0.02060420624911785, -0.06683537364006042, -0.12174232304096222, 0.2422240525484085, 0.29470396041870117, 0.3408457040786743, 0.17957894504070282, 0.1232980489730835, 0.09889551997184753, -0.021337272599339485, 0.20416463911533356, -0.049437910318374634, 0.08779212832450867, 0.14226025342941284, 0.2122417539358139, 0.02511204406619072, -0.1079736053943634, 0.33918920159339905, 0.1697521209716797, -0.07860010862350464, -0.12689617276191711, -0.2168983668088913, 0.29528990387916565, -0.004175606183707714, -0.047548308968544006, 0.10384640097618103, 0.0004821493639610708, -0.08203882724046707, 0.10029546171426773, -0.07263064384460449, -0.014992228709161282, 0.12961749732494354, -0.11082427948713303, -0.04962443187832832, 0.04093356058001518, 0.06328913569450378, 0.40010949969291687, 0.33873119950294495, 0.16737405955791473, -0.2210274487733841, -0.11813627183437347, 0.11036746203899384, 0.052318911999464035, 0.11519114673137665, -0.14718271791934967, -0.07891952991485596, 0.14112639427185059, 0.052734117954969406, -0.03726883977651596, 0.02096600830554962, -0.03407470881938934, 0.2295214980840683, 0.0509013794362545, 0.03096269629895687, -0.07702910900115967, 0.013730918988585472, -0.039070434868335724, -0.15944547951221466, 0.05840200558304787, -0.039158180356025696, 0.14568594098091125, -0.053285084664821625, -0.0027494269888848066, -0.08711223304271698, -0.09330935776233673, 0.0947842076420784, -0.03855167701840401, 0.10315793007612228, -0.17057166993618011, -0.12191389501094818, 0.28684869408607483, -0.3047908544540405], [-0.16722923517227173, -0.23865321278572083, -0.2702657878398895, -0.32638198137283325, 0.17453758418560028, -0.3949618935585022, -0.19164881110191345, -0.20509041845798492, -0.5163319110870361, -0.07543934881687164, -0.36507877707481384, -0.11157368123531342, -0.04658820107579231, 0.051023904234170914, 0.0035446882247924805, -0.05804739147424698, 0.07148118317127228, -0.04059726372361183, -0.09199294447898865, -0.10220013558864594, -0.05324123054742813, -0.1258421093225479, -0.054810311645269394, -0.01319882832467556, -0.10726305097341537, -0.08006773144006729, -0.1647598296403885, -0.19220460951328278, 0.8995612263679504, -0.20324257016181946, -0.295516699552536, -0.2210657000541687, -0.23044443130493164, -0.14255185425281525, -0.17492790520191193, -0.02836252935230732, -0.1269022822380066, -0.09276014566421509, -0.0085938461124897, 0.01259720977395773, 0.013695522211492062, -0.04620857536792755, -0.020900389179587364, 0.09064094722270966, 0.12907807528972626, 0.2487751543521881, 0.015721844509243965, 0.08008740097284317, -0.4712941348552704, -0.14231924712657928, -0.02093537524342537, -0.18687953054904938, 0.47456640005111694, -0.25111305713653564, -0.17458699643611908, -0.17276310920715332, -0.20854616165161133, -0.16144149005413055, -0.2177683413028717, 0.03404627740383148, -0.023301001638174057, 0.10004805028438568, 0.1160946637392044, 0.1222032755613327, 0.14639954268932343, 0.22405189275741577, 0.07531283050775528, 0.04059750959277153, 0.09086797386407852, 0.19630855321884155, 0.06108011305332184, 0.20866341888904572, -0.051995474845170975, -0.18903322517871857, 0.016948794946074486, -0.30047065019607544, -0.12265440821647644, -0.185983806848526, 0.03178327530622482, -0.022426988929510117, -0.3639388680458069, 0.07907789200544357, -0.3107839822769165, 0.028355823829770088, 0.029064534232020378, 0.062430206686258316, 0.16823795437812805, 0.1153261661529541, 0.15991336107254028, 0.11092060059309006, 0.12080488353967667, 0.08744485676288605, 0.22412924468517303, 0.1747460514307022, 0.07716928422451019, 0.5503821969032288, -0.7768988609313965, 0.19947637617588043, 0.030803579837083817, -0.16820603609085083, -0.026709334924817085, -0.20563802123069763, 0.03532524034380913, -0.10261568427085876, -0.05272785574197769, 0.1271064132452011, -0.25400853157043457, 0.07672299444675446, 0.06959941983222961, 0.033078715205192566, 0.2997184693813324, 0.3269980847835541, 0.37127935886383057, 0.1184440478682518, -0.05872238799929619, 0.10811474174261093, 0.034359484910964966, 0.5942782163619995, 0.12029389292001724, 0.1401103287935257, -0.5329630970954895, -0.007027942221611738, -0.31406641006469727, -0.5545839667320251, 0.21281759440898895, -0.26745572686195374, 0.08208874613046646, -0.06805980205535889, -0.6682782173156738, -0.11193596571683884, -0.22704291343688965, 0.22385174036026, 0.09972894191741943, -0.1532277911901474, 0.23488986492156982, -0.011918771080672741, -0.07385868579149246, 0.4126031696796417, 0.33387231826782227, 0.44698983430862427, 0.2262624055147171, 0.5080969333648682, 0.02771720476448536, 0.1561947762966156, 0.007440413348376751, 0.01394042931497097, -0.02451743558049202, -0.006520484108477831, 0.37014347314834595, 0.03424062207341194, -0.0019146655686199665, -0.04793389514088631, 0.0022336700931191444, -0.03470562398433685, 0.0414440780878067, -0.030940039083361626, -0.0036797348875552416, -0.011311246082186699, 0.009069367311894894, 0.047959212213754654, 0.004842628259211779, 0.029516933485865593, 0.03955991938710213, 0.041144389659166336, -0.017600741237401962, -0.011398598551750183, 0.024561824277043343, -0.013906625099480152, 0.02386494353413582, -0.01113414578139782, -0.03456694260239601, 0.020744850859045982, 0.18488924205303192, 0.022722536697983742, 0.05063273757696152, 0.03479529172182083, 0.04831359162926674, 0.0027277758345007896, -0.04384049400687218, -0.03575313836336136, -0.03165794536471367, -0.04491257667541504, -0.025545939803123474, -0.046916477382183075, -0.04702083021402359, -0.030454201623797417, -0.050242748111486435, -0.031282778829336166, 0.019433289766311646, 0.042507268488407135, -0.015160109847784042, -0.01482455525547266, 0.027212781831622124, -0.025144509971141815, -0.024097779765725136, 0.03140087053179741, 0.014303249306976795, 0.006231698673218489, 0.045021314173936844, 0.00873976107686758, 0.013859540224075317, -0.029681401327252388, -0.0007031382410787046, 0.0028022672049701214, 0.01250849012285471, 0.019802138209342957, 0.04428466409444809, -0.03890134394168854, 0.0015276825288310647, -0.025463823229074478, -0.040316350758075714, -0.0040811351500451565, -0.04486102610826492, 0.0355682373046875, 0.005902469158172607, -0.027467846870422363, 0.026633096858859062, -0.04823443666100502, -0.019713113084435463, -0.009928882122039795, -0.36855223774909973, -0.03240787237882614, -0.008318391628563404, 0.03867022693157196, 0.04921429976820946, 0.03242693468928337, -0.030432255938649178, -0.03334220126271248, 0.04447656497359276, 0.018027110025286674, 0.0013540153158828616, 0.006897163111716509, -0.04096018150448799, -0.017016377300024033, 0.049059562385082245, -0.012569542042911053, -0.0025565994437783957, -0.04231759160757065, -0.02851002663373947, -0.0010406790534034371, -0.1573701649904251, -0.2555254101753235, 0.06538466364145279, -0.007261232938617468, -0.7396838068962097, -0.25877854228019714, 0.05396343395113945, -0.13909517228603363, -0.7944400906562805, 0.07836753129959106, -0.9050744771957397, -0.2358805388212204, 0.26650726795196533, 0.21631860733032227, 0.21120604872703552, -0.03404218703508377, 0.07756402343511581, 0.3426475524902344, -0.40904104709625244, -0.5923084616661072, -0.2995828092098236, -0.9284003376960754, 0.14629313349723816, -0.46753597259521484, 0.04221044480800629, 0.20131443440914154, -0.396934449672699, -0.27403971552848816, -1.0425140857696533, -0.2079523354768753, 0.05742287263274193, -0.21177978813648224, -0.854804277420044, 0.030586836859583855, -0.1994289606809616, -0.26307347416877747, -0.17396444082260132, -0.1268981695175171, -0.014005749486386776, -0.2887578308582306, -0.47325706481933594, -0.8968902826309204, -0.7120985984802246, -0.200541153550148, 0.0012782167177647352, -0.5613294243812561, -0.08274875581264496, -0.5732485055923462, -0.14127978682518005, -0.006461767014116049, -0.25702396035194397, -0.029844362288713455, -0.7985332608222961, -0.2840561866760254, -0.41750067472457886, -0.4217286705970764, -0.3753562569618225, -0.4435424506664276, -0.13080185651779175, -0.18817077577114105, -0.10432106256484985, 0.08831460028886795, -0.1417703777551651, -0.2936866283416748, -0.09263096004724503, -0.3074713945388794, -0.21443887054920197, -0.22997233271598816, -0.3878614902496338, -0.4298099875450134, -0.10388965159654617, -1.0141217708587646, -0.09274683892726898, -0.25343450903892517, -0.3451021909713745, -0.20968639850616455, -1.866119146347046, -0.2596234083175659, -0.42074188590049744, -0.2368888556957245, -1.0386145114898682, -0.15059079229831696, -0.19296689331531525, -0.34697163105010986, -0.21068161725997925, 0.06963355839252472, -0.18021786212921143, -0.4975367486476898, -0.44950687885284424, -0.1767776608467102, 0.00128106155898422, -0.22449371218681335, -0.08696886152029037, -0.7964348793029785, -0.07521633058786392, -0.030076785013079643, -0.16252699494361877, -0.11959677189588547, -0.08805728703737259, 0.06644980609416962, -1.5688138008117676, -0.23152373731136322, -0.5099456310272217, -0.3463302254676819, -0.3284316658973694, -0.04454168677330017, -0.36807331442832947, -0.33191806077957153, -0.17040517926216125, 0.14168651401996613, -0.05718700960278511, -0.03074643388390541, 0.11058730632066727, -0.3641485869884491, -0.30028238892555237, -0.4458445906639099, -0.18049198389053345, -0.35990118980407715, 0.03436901047825813, -0.07708366215229034, -0.2367376685142517, -0.1595810055732727, -0.28567180037498474, -0.3842076063156128, -1.4696712493896484, -0.36844897270202637, -0.15394315123558044, -0.26182109117507935, -0.5420323610305786, -0.045125193893909454, -0.36702850461006165, -0.06980261206626892, -0.027861831709742546, 0.0007410221733152866, 0.07657165825366974, -0.06924951076507568, 0.02482331357896328, -0.058447789400815964, -0.12750323116779327, -0.1396680772304535, 0.02164854295551777, -0.06438298523426056, -0.07818213850259781, -0.02009456604719162, 0.5789483189582825], [0.0031576487235724926, 0.012647397816181183, -0.030492093414068222, -0.033500924706459045, -0.021771574392914772, -0.02368105761706829, -0.04661093279719353, -0.009013552218675613, -0.00856923870742321, -0.01950608380138874, -0.003903032746165991, -0.03804782032966614, -0.004566491115838289, 0.0027381214313209057, -0.03521603345870972, -0.050535548478364944, 0.015109062194824219, -0.002149667125195265, -0.04044494405388832, 0.03724047914147377, -0.03610311076045036, 0.0203273706138134, 0.011142118833959103, -0.056496523320674896, 0.016275791451334953, -0.054662611335515976, -0.02823520265519619, -0.017868027091026306, -0.047209482640028, 0.036459580063819885, -0.0220202449709177, 0.007365493103861809, -0.058187589049339294, 0.017243552953004837, -0.027303405106067657, -0.0574965700507164, -0.010802024975419044, 0.008159910328686237, 0.03573380038142204, -0.03112887591123581, -0.03649012744426727, -0.0045639583840966225, -0.0007497962214984, 0.00772019661962986, 0.015058361925184727, -0.025764262303709984, 0.013533811084926128, 0.02380855195224285, -0.029912248253822327, 0.02814106084406376, 0.024900319054722786, 0.03647065907716751, -0.04093156382441521, -0.03693419694900513, -0.026582831516861916, -0.010353888384997845, 0.017741555348038673, -0.041120097041130066, 0.01372430007904768, -0.03686231002211571, 0.013120354153215885, -0.017989087849855423, -0.052460040897130966, -0.028043126687407494, -0.04853016138076782, 0.010676770471036434, -0.04894603043794632, -0.01646207645535469, -0.002106382744386792, -0.041566554456949234, 0.00046749078319408, -0.06430226564407349, -0.053664177656173706, -0.05429847911000252, -0.015415674075484276, -0.02396390587091446, -0.006732612382620573, -0.01826300472021103, 0.01183714997023344, 0.0331849567592144, 0.005265130661427975, -0.03054198995232582, -0.05579477921128273, 0.00519042881205678, -0.038167838007211685, 0.013972044922411442, 0.025996137410402298, 0.01965813711285591, 0.0359540693461895, 0.033637069165706635, -0.004119703080505133, -0.049350541085004807, 0.03214574232697487, -0.037510909140110016, -0.0378364622592926, 0.02782932110130787, 0.023157333955168724, 0.007280891295522451, 0.003194663440808654, -0.04286978393793106, -0.01882067881524563, 0.039902620017528534, 0.0009381766431033611, -0.008744603022933006, -0.023471087217330933, -0.025997737422585487, 0.022303985431790352, -0.00873155053704977, 0.021196933463215828, -0.020071277394890785, 0.014193945564329624, 0.021036703139543533, -0.0027664941735565662, 0.016940761357545853, 0.016756165772676468, 0.03524203971028328, 0.025552542880177498, -0.026105567812919617, -0.05692383646965027, -0.005571708083152771, -0.018362844362854958, -0.018633410334587097, -0.008534283377230167, 0.0023970152251422405, 0.01890416629612446, 0.006908799055963755, -0.030067287385463715, -0.03449393808841705, -0.026164818555116653, -0.025445595383644104, 0.03775649145245552, 0.016010908409953117, 0.03436612710356712, -0.010295582935214043, 0.0021793765481561422, 0.017672766000032425, -0.05798645690083504, -0.010340442880988121, -0.01794714480638504, -0.03813867270946503, -0.051786042749881744, 0.03361966460943222, 0.02736566588282585, 0.009290273301303387, 0.04863307252526283, -0.02068188413977623, -0.008802764117717743, 0.01929619163274765, -0.021071959286928177, -0.010001053102314472, -0.04212547466158867, 0.013692245818674564, -0.030799366533756256, 0.0018533944385126233, 0.049689359962940216, -0.015687720850110054, -0.016063658520579338, 0.0307476706802845, -0.018737345933914185, -0.004376718774437904, 0.047587718814611435, -0.02089419774711132, -0.03646068274974823, -0.028522087261080742, -0.014129746705293655, -0.024182695895433426, -0.02644721232354641, 0.02058691903948784, 0.008660828694701195, -0.016311848536133766, -0.039595071226358414, -0.01604674570262432, -0.03198069706559181, -0.016584886237978935, -0.04597644507884979, 0.010979282669723034, -0.037444982677698135, -0.03969128057360649, -0.041639868170022964, 0.0212718416005373, -0.030682122334837914, -0.021035730838775635, 0.039948221296072006, 0.02706044539809227, 0.029222723096609116, -0.04839133471250534, -0.03654678910970688, -0.019239744171500206, 0.04210183396935463, 0.0052137114107608795, -0.038116369396448135, 0.0003191322030033916, -0.039582811295986176, -0.01116633415222168, -0.014014027081429958, 0.04411820322275162, 0.0032340935431420803, -0.008886775933206081, 0.008609405718743801, -0.014711758121848106, 0.020024055615067482, 0.020159801468253136, 0.013686377555131912, -0.019864873960614204, 0.04348058998584747, -0.007357774768024683, -0.01984141580760479, 0.031919918954372406, 0.041539136320352554, 0.0507180392742157, 0.015098722651600838, -0.01737355999648571, 0.02588457427918911, 0.04372541233897209, -0.04998793825507164, -0.006313863210380077, -0.03475617989897728, 0.00949777290225029, 0.021078234538435936, -0.010528694838285446, -0.012911095283925533, 0.0229397714138031, -0.008565626107156277, -0.042799126356840134, 0.04077870771288872, -0.02565128169953823, -0.005598908290266991, 0.00480731762945652, -0.0030628195963799953, -0.04794180020689964, 0.023382611572742462, -0.023149780929088593, -0.026433341205120087, 0.012176258489489555, -0.02659655176103115, -0.023553837090730667, -0.01717256009578705, -0.019146302714943886, -0.02128477767109871, -0.013744465075433254, 0.0008518219692632556, -0.041241563856601715, -0.0308479405939579, -0.009433642029762268, -0.0064429668709635735, 0.012966649606823921, -0.041501592844724655, 0.0026279331650584936, 0.014297733083367348, 0.014246140606701374, -0.0557531975209713, -0.03231054171919823, -0.05735847353935242, -0.04148205369710922, 0.028386477380990982, -0.007610003929585218, 0.012047859840095043, -0.04040592536330223, -0.00020123158174101263, -0.030826415866613388, 0.01307659037411213, -0.0355558842420578, -0.02509288489818573, -0.04421858862042427, -0.014592977240681648, 0.04259749501943588, 0.0247371606528759, -0.03800047188997269, -0.014041319489479065, -0.021284619346261024, -0.04927966371178627, 0.026497732847929, -0.013383105397224426, -0.00224633258767426, -0.02985697239637375, -0.039679937064647675, -0.00952338706701994, 0.0013007738161832094, 0.003216209588572383, -0.02456219494342804, 0.03864246606826782, -0.018096892163157463, -0.04045289009809494, -0.029719650745391846, 0.03760991618037224, -0.014461260288953781, -0.021950887516140938, -0.02943033166229725, -0.027940215542912483, -0.04871644079685211, -0.04050081968307495, 0.018612932413816452, 0.028980493545532227, 0.033662714064121246, -0.044134240597486496, 0.01515473797917366, -0.0452219694852829, 0.01700768619775772, 0.0256752111017704, 0.020644212141633034, 0.0172792449593544, 0.013424217700958252, -0.006746943108737469, 0.0234173946082592, -0.02896369993686676, 0.011034286580979824, -0.02665458247065544, -0.006738593801856041, -0.05649794638156891, -0.027556706219911575, -0.04149121046066284, -0.025510458275675774, -0.04802248254418373, -0.05163242295384407, 0.0033186455257236958, 0.021916842088103294, 0.03141152486205101, 0.01486289594322443, -0.03568519279360771, -0.06339406967163086, 0.005626872181892395, 0.015415580943226814, -0.054852444678545, -0.00042470352491363883, 0.02382506988942623, -0.015398947522044182, -0.03844304010272026, 0.04178476706147194, 0.01067056693136692, 0.022114524617791176, -0.04569736868143082, 0.021303651854395866, -0.04724516347050667, 0.036195799708366394, -0.03642775118350983, 0.019768942147493362, -0.005268447566777468, 0.006582312751561403, -0.007815694436430931, 0.009774815291166306, -0.0356084480881691, -0.06291602551937103, -0.030250370502471924, 0.027261320501565933, -0.0269062090665102, 0.002922193845734, -0.029941605404019356, 0.020012078806757927, 0.012021600268781185, 0.0005068676546216011, -0.03314295411109924, -0.04164479300379753, -0.009770180098712444, -0.0435599759221077, 0.028125369921326637, -0.061318766325712204, 0.009663206525146961, 0.03661096468567848, 0.010917605832219124, 0.004871276207268238, -0.06535835564136505, 0.041220687329769135, -0.008717391639947891, -0.05878005921840668, 0.03526320680975914, -0.03509972244501114, -0.015293099917471409, 0.033434707671403885, -0.04896330460906029, -0.04910987988114357, -0.002680618315935135, -0.024669788777828217, -0.006090848706662655, -0.059227105230093, -0.006846753880381584, -0.02266705594956875, -0.036622315645217896, -0.060971785336732864, 0.01249754149466753, -0.002056658500805497, -0.05614219605922699, 0.02633127011358738, 0.0006582814967259765, -0.004310131538659334, -0.042759258300065994], [0.007493847981095314, 0.05301133170723915, -0.13577498495578766, -0.29917436838150024, 0.08029241859912872, 0.04370086267590523, 0.02723788656294346, 0.0733412653207779, 0.017684005200862885, 0.05109695717692375, 0.12520574033260345, -0.07984953373670578, 0.02686568722128868, -0.1830965280532837, -0.060612645000219345, -0.01689622923731804, -0.31068888306617737, -0.03883706033229828, -0.0505918487906456, 0.17836245894432068, 0.06611207872629166, -0.03410240635275841, -0.016788242384791374, -0.14020520448684692, 0.02799534797668457, 0.06358516961336136, -0.1416081339120865, -0.3433414399623871, -0.25144264101982117, 0.1294625699520111, 0.22662539780139923, 0.16825711727142334, 0.04038620367646217, 0.13713032007217407, 0.14876718819141388, -0.029987074434757233, 0.04928727447986603, -0.1411915272474289, -0.03077218309044838, -0.043357715010643005, -0.42831894755363464, -0.10655896365642548, -0.20038683712482452, -0.11381004750728607, -0.152374729514122, -0.00039042969001457095, -0.14855913817882538, 0.29576101899147034, -0.49313467741012573, 0.2240220010280609, -0.17916373908519745, -0.29590198397636414, 0.09589565545320511, -0.17824925482273102, 0.20231784880161285, 0.05170727148652077, 0.04862678796052933, 0.09579317271709442, 0.10202933847904205, 0.09357993304729462, 0.3316912353038788, 0.05227179825305939, 0.16774697601795197, 0.2107723504304886, -0.3152536451816559, 0.06950094550848007, 0.07649437338113785, 0.10657746344804764, 0.2857469916343689, 0.07593058794736862, -0.23336996138095856, -0.6982182264328003, 0.047732941806316376, 0.17510086297988892, -0.12078976631164551, -0.2752108871936798, 0.1592254489660263, 0.10651085525751114, 0.5460221767425537, 0.06349088251590729, 0.26636722683906555, 0.2255047857761383, 0.27353811264038086, 0.3855297565460205, 0.3343433141708374, -0.17842906713485718, -0.014022989198565483, 0.07201037555932999, -0.24509012699127197, -0.28207698464393616, -0.17849178612232208, -0.2335648387670517, -0.18432094156742096, -0.3464660048484802, -0.1333177387714386, -0.09413138777017593, -0.1817956566810608, 0.3006833791732788, 0.09202783554792404, -0.3112075924873352, 0.17123179137706757, -0.43963319063186646, -0.12020651996135712, 0.131655752658844, 0.109317846596241, 0.13575808703899384, 0.19345182180404663, -0.3583747446537018, -0.11867395043373108, -0.018427357077598572, -0.029717138037085533, 0.12130383402109146, -0.21785853803157806, -0.12251118570566177, -0.033067379146814346, -0.01927967369556427, -0.06043849512934685, -0.04804007336497307, 0.031035473570227623, -0.2407001256942749, 0.24725347757339478, 0.9627587199211121, 0.002628868678584695, -0.3324374854564667, 0.1500312238931656, -0.06330188363790512, -0.2374332994222641, 0.24284444749355316, -0.2735796272754669, 0.032737649977207184, 0.0004328814975451678, -0.48292070627212524, 0.09906604886054993, -0.340648889541626, -0.24378369748592377, 0.1486491858959198, -0.15477697551250458, 0.3450082540512085, 0.150801420211792, 0.2945491671562195, 0.15825079381465912, -0.18703196942806244, -0.010305032134056091, -0.15571407973766327, 0.02782866358757019, -0.025319939479231834, 0.005612973123788834, -7.398705201921985e-05, 0.1702406257390976, -0.02738587185740471, 0.028746088966727257, 0.03389201685786247, -0.03536229208111763, 0.0004937168559990823, 0.00014140651910565794, 0.016365572810173035, 0.04747794196009636, 0.014946089126169682, -0.011580304242670536, 0.04577309265732765, -0.01939375139772892, -0.014798716641962528, 0.0034796332474797964, -0.038810085505247116, 0.005545845255255699, -0.034578315913677216, 0.00524022476747632, 0.004882805049419403, 0.007054572459310293, -0.04297832399606705, -0.048405490815639496, 0.02344975247979164, 0.21277353167533875, -0.04522468522191048, 0.01887703873217106, -0.03751622885465622, 0.003195046214386821, 0.04741542041301727, 0.03866281360387802, -0.037262335419654846, 0.03152534365653992, 0.026619749143719673, -7.817304867785424e-05, 0.049370888620615005, -0.02024192363023758, -0.011860297992825508, -0.02575829066336155, 0.007333660963922739, 0.013494781218469143, 0.004060879349708557, -0.028674641624093056, -0.02294260822236538, 0.01733577810227871, -0.04468721151351929, -0.00793696753680706, -0.0011289495741948485, 0.2526606321334839, 0.01854698173701763, 0.003284865990281105, 0.03578052669763565, -0.004526254255324602, -0.03216579556465149, 0.03600921481847763, 0.007117161992937326, -0.014596202410757542, -0.03359099105000496, 0.011945567093789577, -0.048607729375362396, 0.013422975316643715, 0.02519923821091652, -0.044706277549266815, -0.033365193754434586, -0.036639854311943054, 0.042836181819438934, 0.04332616180181503, 0.0031904347706586123, 0.04784597456455231, -0.017037708312273026, -0.04947768151760101, 0.017801716923713684, 0.2165050208568573, 0.04996491223573685, -1.47512364492286e-05, 0.03905916586518288, 0.031239528208971024, 0.03688667714595795, -0.0505739264190197, 0.04196730628609657, -0.04344502091407776, 0.04569043591618538, -0.0021120088640600443, -0.045165807008743286, 0.01417291909456253, -0.010373704135417938, -0.04577617347240448, -0.018476659432053566, 0.005254726856946945, 0.03969370201230049, -0.015668068081140518, 0.030271409079432487, -0.14749418199062347, -0.2687666714191437, -0.030757935717701912, 0.007312283851206303, -0.05171480029821396, -0.2007773369550705, -0.648431658744812, -0.30109283328056335, -0.17983652651309967, -0.23521897196769714, -0.023361142724752426, -0.022393615916371346, 0.13543224334716797, 0.0175491776317358, -0.054233118891716, -0.04205234721302986, -0.06733012199401855, 0.14483916759490967, 0.34481388330459595, 0.6737641096115112, 0.35381925106048584, -0.22202728688716888, 0.10735791176557541, -1.2899835109710693, 0.614669144153595, -0.8819336295127869, -0.05244070291519165, 0.023507772013545036, -0.1705830693244934, 0.40537458658218384, -0.2295648604631424, 0.1777368038892746, -0.18882232904434204, 0.1097404882311821, 0.16027775406837463, -0.15192294120788574, -0.23479808866977692, -0.22273918986320496, -0.3149392008781433, -0.23204782605171204, -0.15893438458442688, -0.16253472864627838, -0.11458583176136017, 0.14050866663455963, -0.2248755544424057, -0.1891990303993225, 0.20263847708702087, 0.7616745233535767, -0.021590176969766617, -0.5092035531997681, -0.2775413691997528, -0.02412215806543827, -0.2741093933582306, -0.04608660563826561, -0.44934317469596863, 0.09183640778064728, -0.4578515291213989, -0.09637141972780228, -0.03595607355237007, -0.3522437512874603, -0.21337828040122986, -0.02775369957089424, -0.019992468878626823, 0.058424849063158035, -0.22857627272605896, 0.1930823028087616, 0.1280563324689865, 0.40418413281440735, 0.24934250116348267, 0.18094903230667114, 0.11753681302070618, 0.021177494898438454, 0.06724294275045395, 0.21123123168945312, -0.5963852405548096, -0.09474050253629684, -0.1395164579153061, 0.28002387285232544, 0.19871819019317627, -0.053728293627500534, -0.09316349029541016, 0.0487137995660305, 0.06765163689851761, 0.18569785356521606, 0.1644384264945984, -0.14318537712097168, 0.0664091557264328, -0.18694598972797394, -0.20479035377502441, 0.03224298357963562, -0.07896601408720016, 0.22718079388141632, 0.16132618486881256, -0.05119333416223526, 0.026859896257519722, -0.12365551292896271, -0.10203669965267181, -0.4365178644657135, -0.09354260563850403, -0.1402294784784317, 0.3004493713378906, 0.008952401578426361, 0.13229070603847504, -0.003481418127194047, 0.15241259336471558, 0.14600606262683868, 0.14138929545879364, 0.17599943280220032, -0.021116945892572403, 0.036024026572704315, -0.0045970710925757885, -0.05993828922510147, -0.16318710148334503, -0.1524241417646408, -0.10448617488145828, 0.06889507174491882, 0.051357537508010864, 0.014068095944821835, -0.028393758460879326, -0.13218192756175995, 0.031813014298677444, 0.03820417448878288, -0.14763204753398895, -0.2206554263830185, 0.3893835246562958, 0.07326213270425797, 0.014467496424913406, 0.0644238293170929, 0.023875638842582703, 0.10236535221338272, 0.06166069582104683, -0.050306517630815506, 0.037393417209386826, -0.1388912796974182, -0.063361756503582, 0.025352315977215767, -0.27397245168685913, -0.06244288384914398, -0.05876412242650986, 0.12319818139076233, 0.004560248460620642, -0.05518246069550514, -0.05283282697200775, -0.20597156882286072, 0.1360391080379486], [0.19312314689159393, 0.12224026769399643, 0.030284494161605835, 0.21179990470409393, 0.24418708682060242, 0.05680815875530243, 0.12037170678377151, 0.05868728086352348, 0.053213998675346375, 0.0560341477394104, 0.037455085664987564, 0.07992913573980331, -0.03438946604728699, -0.10759524255990982, 0.04938036948442459, 0.2022014707326889, -0.11496462672948837, -0.1139322966337204, -0.008955187164247036, -0.09474238008260727, 0.055754948407411575, 0.018750905990600586, 0.0740891546010971, 0.007840259931981564, 0.04415934905409813, -0.018277596682310104, 0.10911162197589874, 0.2503649592399597, 0.17721949517726898, 0.3493454158306122, 0.1267329901456833, 0.009111306630074978, -0.09098100662231445, -0.10456644743680954, 0.04043421149253845, -0.034291282296180725, -0.24460987746715546, -0.21008414030075073, -0.1609552949666977, -0.12054482102394104, -0.21458762884140015, -0.20113293826580048, -0.19621773064136505, -0.07196114212274551, 0.07144808024168015, -0.09705691039562225, -0.1275918334722519, -0.15036632120609283, 0.2928634285926819, 0.24740082025527954, 0.033365264534950256, 0.22856102883815765, 0.0511198453605175, 0.041708577424287796, 0.25801506638526917, -0.10414029657840729, 0.13157394528388977, 0.028662022203207016, 0.008356953039765358, 0.10579663515090942, 0.02763383276760578, 0.04234631732106209, 0.22890876233577728, 0.36728522181510925, -0.1571427285671234, 0.11989577114582062, -0.13326317071914673, 0.0070884739980101585, 0.059212617576122284, 0.06921594589948654, 0.09296530485153198, 0.15129268169403076, -0.19157284498214722, 0.3912754952907562, 0.2678706645965576, 0.1802409142255783, -0.03393881767988205, -0.3085293769836426, 0.17635750770568848, 0.11941386759281158, 0.007718986365944147, 0.05130065977573395, 0.03451894223690033, -0.0025489458348602057, 0.30602723360061646, -0.14210739731788635, -0.3476690948009491, -0.03639442101120949, -0.24628672003746033, 0.113497294485569, 0.06795089691877365, 0.19527193903923035, 0.6588905453681946, 0.4953811466693878, 0.3559158742427826, 0.5056295990943909, 0.3865801692008972, -0.5159506797790527, -0.14540250599384308, 0.23679214715957642, -0.029310237616300583, 0.33003050088882446, 0.08479253947734833, 0.15555937588214874, -0.08690568804740906, 0.4313083589076996, 0.23264405131340027, 0.03402005881071091, 0.08428368717432022, -0.4847537875175476, 0.18228831887245178, 0.2473331093788147, -0.004916850943118334, 0.003031580476090312, 0.02950398623943329, -0.4339633882045746, -0.5875134468078613, -0.8346589207649231, -0.4075959324836731, -0.9306049942970276, 0.21412108838558197, 0.26361143589019775, 1.0623234510421753, 1.3017306327819824, -0.05877023935317993, 0.5696467161178589, 0.010928221046924591, 0.4201895594596863, 0.19909150898456573, -0.07491517812013626, -0.08892510831356049, -0.09883035719394684, 0.43083664774894714, 0.21628785133361816, 0.4281255900859833, 0.39840415120124817, -0.024622604250907898, -0.26991578936576843, -0.12197951227426529, -0.005680440925061703, 0.07782239466905594, -0.05993722006678581, -0.1091267392039299, 0.26448577642440796, 0.007869565859436989, 0.02431791089475155, -0.04749896377325058, 0.00012039147986797616, -0.16659705340862274, 0.017345819622278214, -0.03630978614091873, -0.01816406473517418, 0.03562593087553978, 0.0487067736685276, -0.030598219484090805, -0.028285976499319077, 0.006311779376119375, 0.02003449946641922, -0.008300742134451866, -0.01591578871011734, -0.0334758535027504, 0.021755602210760117, 0.049933288246393204, -0.024670956656336784, 0.02403820864856243, 0.024890895932912827, 0.04096528887748718, -0.0058025275357067585, 0.0016052784631028771, 0.037443723529577255, 0.032215509563684464, 0.05033821985125542, -0.02607501856982708, 0.020166058093309402, 0.03558744862675667, -0.03459566459059715, 0.010124591179192066, -0.011403495445847511, 0.032761361449956894, -0.022889642044901848, 0.00357459275983274, 0.030492737889289856, -0.04668964445590973, -0.043032679706811905, -0.026103315874934196, 0.032689645886421204, 0.03417326137423515, -0.03480737656354904, 0.009718324989080429, -0.027005231007933617, -0.02365541271865368, 0.04395286366343498, 0.02461642399430275, -0.013937980867922306, 0.007502085063606501, 0.009874768555164337, -0.04746858775615692, -0.01744413934648037, -0.03001238778233528, 0.03374189883470535, 0.006848261691629887, 0.021331265568733215, -0.019301854074001312, 0.024685757234692574, 0.037090376019477844, 0.030995391309261322, 0.013857091777026653, 0.05014331638813019, -0.00011146054021082819, 0.010850239545106888, 0.048423103988170624, 0.0495324581861496, -0.02151832915842533, 0.04590918868780136, 0.018809041008353233, -0.005704870447516441, 0.04449964314699173, -0.02640121430158615, 0.03311425447463989, 0.050503190606832504, 0.07154692709445953, -0.030073920264840126, -0.050501659512519836, -0.009171733632683754, -0.04628634452819824, -0.017069203779101372, 0.01547264400869608, 0.03602582588791847, 0.02838914282619953, 0.028289541602134705, 0.021143419668078423, -0.03161001577973366, -0.04046572744846344, 0.0021126773208379745, 0.048395223915576935, 0.002869607647880912, -0.00438346853479743, -0.034591663628816605, -0.025270259007811546, -0.03928685188293457, 0.29793044924736023, 0.0619087815284729, -0.1750350296497345, -0.10417918115854263, 0.09507792443037033, -0.6666816473007202, 0.05803567171096802, 0.14121273159980774, 0.25648006796836853, 0.286889910697937, 0.09507974982261658, 0.2582107484340668, 0.4499134421348572, 0.3054347038269043, 0.36490270495414734, 0.9090725183486938, 0.2685616612434387, 0.3620227873325348, 0.5899838805198669, 0.007994342595338821, -0.05697294697165489, 0.2557016611099243, 0.4893290102481842, 0.552727997303009, 0.028700556606054306, -0.10216148942708969, -0.03931945562362671, 0.09186868369579315, -0.16088296473026276, -0.03087046556174755, -0.15615639090538025, 0.21470403671264648, -0.050908446311950684, 0.06432072073221207, 0.03558472543954849, 0.07729851454496384, -0.15681956708431244, -0.24452802538871765, -0.35330629348754883, -0.17065191268920898, 0.0766492635011673, -0.06667812168598175, 0.3079732358455658, -0.0032155776862055063, 0.015035545453429222, -0.07225436717271805, -0.06155228987336159, -0.1858847290277481, 0.38477563858032227, -0.1444493979215622, -0.020886912941932678, 0.06393604725599289, -0.5600078105926514, 0.20756374299526215, -0.00702581275254488, -0.13118061423301697, 0.03238309919834137, 0.041801515966653824, 0.11075154691934586, 0.09932456910610199, -0.30032607913017273, -0.015036392956972122, 0.37433934211730957, 0.23630419373512268, 0.08005345612764359, -0.09412537515163422, 0.08476269245147705, -0.26162999868392944, -0.5786681175231934, -0.5502430200576782, -0.3303886353969574, -0.5127848386764526, 0.10445580631494522, 0.415132611989975, 0.13906380534172058, 0.11693841218948364, 0.7698648571968079, -0.10921281576156616, 0.08017047494649887, -0.028803575783967972, 0.1912081241607666, -0.16131271421909332, 0.010812217369675636, 0.1363205760717392, -0.14060552418231964, 0.10877343267202377, -0.07210976630449295, 0.0828200951218605, -0.07107970863580704, -0.030023304745554924, 0.08941671997308731, 0.18507437407970428, 0.5207847952842712, 0.5688436627388, 0.27341052889823914, 0.6760087609291077, 0.14658387005329132, -0.0022807703353464603, -0.2961690127849579, -0.29561325907707214, -0.12359895557165146, -0.06673335283994675, 0.19939620792865753, -0.10062830150127411, 0.08561623096466064, 0.1273767203092575, 0.09889766573905945, 0.1451837569475174, -0.1814141869544983, -0.21405625343322754, -0.11216601729393005, 0.061100926250219345, -0.13774752616882324, -0.029741400852799416, 0.07968922704458237, -0.10986968874931335, 0.0413600392639637, 0.015958527103066444, 0.12686696648597717, -0.1152603030204773, 0.23497436940670013, 0.029972579330205917, -0.014807927422225475, 0.165119931101799, 0.5351254343986511, 0.0721115916967392, 0.057573650032281876, 0.05558599904179573, 0.06316646933555603, 0.08837969601154327, 0.007345397025346756, 0.06421104073524475, -0.01863383688032627, -0.1739821881055832, -0.039641790091991425, 0.2011093944311142, -0.09058479219675064, -0.08492621779441833, 0.07287459820508957, -0.09498453885316849, 0.009444328024983406, -0.04687890410423279, 0.020014069974422455, 0.010954721830785275, 0.25754672288894653], [-0.37084144353866577, -0.06011300906538963, 0.19113889336585999, -0.10226239264011383, 0.245724156498909, -0.5199186205863953, -0.2600504159927368, -0.3916907012462616, -0.23768003284931183, -0.39694729447364807, -0.17801730334758759, -0.21808716654777527, -0.11456780135631561, -0.005981510505080223, -0.3929001986980438, -0.09101465344429016, -0.03756416589021683, -0.1141243502497673, -0.04517534002661705, -0.07429448515176773, 0.0710914134979248, -0.1454617977142334, -0.014654169790446758, -0.1410808563232422, -0.34444135427474976, -0.10059736669063568, 0.2262512445449829, -0.0791790634393692, -0.7658720016479492, 0.03827003017067909, -0.18602588772773743, -0.3420151472091675, -0.25919947028160095, -0.3355996012687683, -0.07380747050046921, -0.19597375392913818, -0.3552674651145935, -0.41083574295043945, -1.019590973854065, -0.4973851144313812, -0.1564575433731079, -0.2113700658082962, -0.11460753530263901, -0.05085168406367302, 0.07422218471765518, -0.2196170538663864, 0.08373448997735977, -0.2670091390609741, -0.1916416436433792, -0.02160850539803505, 0.18223220109939575, -0.05269176512956619, -0.49787238240242004, -0.1594933122396469, -0.15799327194690704, -0.27498650550842285, -0.2387741655111313, -0.32568082213401794, -0.19282878935337067, -0.06346021592617035, -0.04132571071386337, -0.08714398741722107, -0.4472346007823944, -0.6048930883407593, -0.05017729848623276, -0.24541935324668884, 0.02651609480381012, 0.051838506013154984, 0.09067564457654953, -0.06296838819980621, -0.26984715461730957, -0.385946124792099, -0.16317816078662872, -0.006485852412879467, 0.24184109270572662, 0.060841452330350876, -0.6201918125152588, -0.15830884873867035, -0.21131934225559235, -0.28931310772895813, -0.2505684792995453, -0.28956717252731323, -0.20500877499580383, -0.4912182092666626, -0.219069704413414, 0.06167369335889816, -0.1459415853023529, -1.0100233554840088, -1.1257017850875854, -0.916602373123169, -0.1551387906074524, 0.006548254285007715, -0.40703487396240234, -0.27370432019233704, 0.1269080936908722, -0.9364854693412781, -0.14535214006900787, -0.05227409303188324, 0.1753692775964737, 0.07291427254676819, -0.47820526361465454, -0.2127285748720169, -0.1966879516839981, -0.26483410596847534, -0.1726274937391281, -0.1774144470691681, -0.0752737820148468, -0.27256956696510315, -0.1861608773469925, -0.2686574161052704, -0.14671197533607483, -0.1440238058567047, -0.28074923157691956, -0.9698818325996399, -0.27131345868110657, -0.05767359957098961, -0.10501814633607864, -0.30718010663986206, 0.20495709776878357, -0.6882272362709045, 0.14247894287109375, 0.08333300799131393, 0.21363061666488647, -0.04405603185296059, -0.2534971833229065, -0.17355430126190186, -0.09335795044898987, -0.1925981193780899, -0.12137820571660995, -0.09903090447187424, -0.31357231736183167, 0.010872012004256248, 0.11829762160778046, 0.010719992220401764, -0.1280388981103897, -0.08963944762945175, -0.25791868567466736, -0.08313054591417313, -0.3983578681945801, -0.41011178493499756, -0.20669147372245789, -0.2373259961605072, -1.1239553689956665, 0.570155680179596, 0.006072758696973324, -0.025489918887615204, 0.0252656489610672, -0.050150275230407715, -0.05344303324818611, 0.004107150249183178, 0.004920776933431625, 0.0235684122890234, 0.004230700898915529, 0.02184610813856125, 0.032424475997686386, -0.039775848388671875, 0.033716242760419846, -0.007631395477801561, -0.011851798743009567, 0.010258257389068604, 0.03986214101314545, -0.027705198153853416, -0.03434671089053154, 0.03162907436490059, -0.023936493322253227, 0.016408095136284828, -0.007508433889597654, 0.014028188772499561, 0.03889194503426552, -0.02582886815071106, -0.02473132312297821, 0.025004347786307335, 0.0329866036772728, -0.005609084852039814, -0.044766806066036224, 0.04318028315901756, -0.0019300790736451745, -0.009387060068547726, -0.02092050388455391, -0.01005728729069233, 0.024770600721240044, -0.001171338139101863, 0.04358546808362007, -0.0029424342792481184, -0.0073112850077450275, 0.028767116367816925, -0.0013187411241233349, -0.01017219852656126, 0.017033765092492104, 0.04019235819578171, 0.012718221172690392, 0.03548765927553177, 0.03302709013223648, 0.01441271137446165, 0.017719849944114685, 0.01644550822675228, 0.21452000737190247, 0.043357543647289276, 0.04704760015010834, 0.018142860382795334, -0.0025451048277318478, 0.04569466412067413, -0.03966689109802246, 0.037448056042194366, 0.02700241282582283, 0.032726287841796875, -0.003915906418114901, -0.038024671375751495, 0.036355115473270416, -0.02228461019694805, 0.013409457169473171, 0.028873814269900322, -0.04762783646583557, 0.003382219234481454, -0.018104014918208122, 0.03617247939109802, -0.03244931250810623, 0.030944235622882843, 0.03178006783127785, 0.028117995709180832, 0.556203305721283, 0.007718663662672043, -0.04619346186518669, 0.03638192638754845, 0.004665655549615622, 0.0010113953612744808, -0.04854844510555267, -0.01145463902503252, -0.024736633524298668, 0.04991540685296059, 0.03628835082054138, 0.0380190834403038, 0.034902505576610565, -0.03159169852733612, -0.021887797862291336, -0.0199450571089983, -0.020430851727724075, 0.039672575891017914, 0.017316123470664024, 0.04084078595042229, -0.1395912915468216, -0.13908769190311432, -0.1072954386472702, -1.8436952829360962, 0.7509549260139465, -0.6830377578735352, -0.12501290440559387, -0.18560314178466797, -0.13783103227615356, -0.12872348725795746, -0.14843535423278809, -0.1618966907262802, 0.4375675618648529, 0.4134882688522339, -0.07820559293031693, 0.28025880455970764, 0.11475939303636551, -0.03905831277370453, 0.11764385551214218, -0.049839407205581665, 0.031591858714818954, 0.20003725588321686, 0.01647852547466755, -0.05282202363014221, -0.5078098773956299, -0.7832107543945312, 0.3104441165924072, -0.6750434637069702, 0.5770570039749146, -0.4511869549751282, -0.1708730310201645, -0.14327873289585114, -0.12528003752231598, -0.1830478310585022, -0.10098801553249359, -0.33868110179901123, -0.11207006126642227, -0.07008164376020432, -0.3010123074054718, 0.11779802292585373, 0.05405671149492264, 0.013512903824448586, -0.039475735276937485, -0.10659600049257278, -0.06588798761367798, -0.07511497288942337, 0.3054579496383667, 0.06714771687984467, -0.28756776452064514, -0.8555020689964294, 0.08572424203157425, -0.6465674638748169, 0.6576486825942993, -0.48109835386276245, -0.14354418218135834, -0.11421619355678558, -0.0895615741610527, -0.21009232103824615, -0.0800720825791359, 0.05595161393284798, 0.0747181624174118, -0.060193151235580444, -0.2946834862232208, -0.029924752190709114, 0.05342579260468483, 0.2222980260848999, -0.003686383832246065, -0.06721442937850952, 0.2862163186073303, 0.06442687660455704, 0.039441950619220734, 0.2678988575935364, -0.360527366399765, 0.21171842515468597, 0.1165025606751442, -0.34862229228019714, 0.4908079206943512, -0.46083444356918335, -0.20147861540317535, -0.17337645590305328, -0.194243386387825, -0.254515141248703, -0.15290720760822296, -0.15391850471496582, 0.05810028687119484, -0.007294779177755117, -0.3947106897830963, -0.1225132942199707, 0.012352995574474335, 0.010942396707832813, 0.13248780369758606, -0.057065609842538834, 0.06855505704879761, 4.022344364784658e-05, 0.007177388295531273, -0.0019208677113056183, -0.7269595861434937, -0.09312129765748978, 0.1748029887676239, -0.10034883767366409, -0.23138491809368134, -0.491926908493042, -0.2843354642391205, -0.2492544800043106, -0.18645218014717102, -0.3700045347213745, -0.07736340165138245, -0.25361573696136475, -0.04066774621605873, -0.0065431552939116955, -0.4329243004322052, -0.16575130820274353, -0.002968886401504278, -0.11143402010202408, 0.020812198519706726, 0.031393490731716156, 0.08585415035486221, -0.007830513641238213, 0.11826345324516296, -0.14589934051036835, -0.3978024125099182, -0.04301869869232178, 0.19296914339065552, -0.15795424580574036, 0.06886515021324158, -0.43051791191101074, -0.25279927253723145, -0.3850337862968445, -0.28489863872528076, -0.34593138098716736, -0.12404566258192062, -0.24363717436790466, -0.08840549737215042, -0.09176377952098846, -0.4418071210384369, -0.14798220992088318, -0.01106150634586811, -0.17049174010753632, -0.09162231534719467, -0.07284335047006607, -0.0041470215655863285, -0.1361553817987442, -0.01503623928874731, -0.2041117548942566, 0.21837501227855682], [-0.04506212845444679, -0.11458782106637955, -0.08292455226182938, 0.0008315115701407194, -0.054289642721414566, -0.12603165209293365, -0.10818615555763245, 0.10978205502033234, -0.10714399069547653, -0.12002179771661758, -0.15734706819057465, 0.1230374425649643, 0.21050630509853363, 0.22102688252925873, 0.00289920880459249, 0.01719486713409424, -0.07691119611263275, -0.032198190689086914, 0.04422399774193764, 0.15278023481369019, -0.06946935504674911, -0.030693812295794487, -0.23728981614112854, 0.09338628500699997, 0.023502102121710777, -0.15068607032299042, 0.06918688863515854, -0.0026556230150163174, 0.2091367542743683, -0.14006391167640686, -0.06869492679834366, -0.03376445919275284, -0.07940669357776642, -0.0006131437257863581, -0.2980487644672394, 0.021810006350278854, -0.004218477290123701, -0.14997313916683197, -0.029866687953472137, 0.16143271327018738, -0.06367839127779007, -0.19188863039016724, -0.07670439779758453, 0.017494136467576027, -0.39222806692123413, -0.1968086212873459, -0.021724259480834007, 0.026115059852600098, 0.010601540096104145, 0.011131279170513153, 0.16027675569057465, -0.0675446167588234, 0.19285818934440613, -0.04001086205244064, 0.30684465169906616, 0.10109871625900269, -0.26087480783462524, 0.14276981353759766, -0.017201917245984077, 0.11172807961702347, 0.0959952175617218, -0.019733455032110214, -0.07314448058605194, 0.12337738275527954, -0.03232455253601074, 0.22675809264183044, 0.22101706266403198, 0.15383917093276978, 0.16581355035305023, -0.032522667199373245, -0.05706871673464775, -0.1531274914741516, 0.29153135418891907, -0.1423051655292511, 0.209406316280365, 0.02605944685637951, 0.42712241411209106, -0.0016993532190099359, 0.32640576362609863, -0.16701345145702362, 0.10314612090587616, -0.1357032209634781, -0.09612682461738586, 0.05368168652057648, -0.16867545247077942, -0.11976587027311325, -0.00021946012566331774, -0.17769722640514374, -0.1342925727367401, -0.25991716980934143, -0.07306084036827087, -0.09971502423286438, -0.13635176420211792, -0.12715013325214386, -0.37625083327293396, -0.03906198963522911, 0.1818431168794632, -0.35640794038772583, 0.17734844982624054, 0.05133061856031418, 0.2996729910373688, -0.022089218720793724, 0.32135552167892456, 0.0375981405377388, 0.10822196304798126, 0.02611668035387993, -0.284456729888916, -0.13922028243541718, -0.22989636659622192, -0.42018038034439087, -0.4409036636352539, -0.12593142688274384, -0.2141401618719101, -0.18888194859027863, 0.13411420583724976, 0.14161546528339386, -0.07039053738117218, -0.10529155284166336, -0.38258373737335205, 0.23010706901550293, 0.05991556867957115, 0.22972598671913147, 0.34155598282814026, 0.39283379912376404, 0.21481233835220337, -0.43107423186302185, -0.5038846731185913, -0.26110604405403137, 0.3080669939517975, 0.25349047780036926, -0.3551025092601776, 0.0874471515417099, 0.1469339281320572, -0.28204473853111267, -0.8082619309425354, -0.04337265342473984, -0.4147208333015442, -0.06766444444656372, -0.0075577786192297935, -0.12035715579986572, 0.03703683242201805, -0.028482113033533096, -0.02449198067188263, 0.12711627781391144, -0.030671345070004463, -0.027675725519657135, 0.04059619456529617, 0.03666507452726364, 0.22053664922714233, -0.03973807394504547, 0.039690952748060226, -0.004871814511716366, 0.03754861652851105, 0.04426538199186325, 0.0055862958543002605, -0.021207356825470924, 0.047940004616975784, -0.026558738201856613, 0.03330110013484955, -0.04886956512928009, -0.016029059886932373, -0.0444338284432888, -0.022861560806632042, 0.02164059318602085, -0.03651765361428261, -0.044074494391679764, 0.03644157573580742, 0.02720601297914982, -0.0005573087837547064, -0.03592813014984131, -0.013502411544322968, -0.01650138385593891, 0.1603238582611084, -0.016669875010848045, -0.014678634703159332, -0.03612681105732918, -0.024003755301237106, 0.027594782412052155, 0.032835833728313446, 0.007404525298625231, -0.019121868535876274, 0.04895114153623581, 0.010059413500130177, -0.019672201946377754, -0.0176642294973135, -0.007132557220757008, 0.024162251502275467, 0.018641242757439613, 0.03694741427898407, -0.0022963143419474363, 0.04215255007147789, -0.020701222121715546, -0.02347196266055107, -0.01882113888859749, -0.047815509140491486, -0.03345528244972229, -0.054079823195934296, -0.0030118951108306646, 0.0004804662603419274, -0.013227490708231926, -0.03482845425605774, 0.0462397076189518, -0.01688666082918644, 0.024287382140755653, 0.03549234941601753, -0.0335020087659359, -0.006371768657118082, 0.029455941170454025, 0.0494031123816967, -0.006429764907807112, 0.03693021833896637, -0.04000048711895943, -0.033113785088062286, 0.0419100783765316, -0.004825319163501263, 0.050349198281764984, 0.0037060112226754427, -0.02113553322851658, 0.04840198531746864, 0.044567812234163284, -0.42178618907928467, -0.030895086005330086, -0.0022066161036491394, -0.024509793147444725, 0.03713703528046608, 0.0023608661722391844, 0.010729167610406876, 0.030908318236470222, 0.016881629824638367, -0.03181556239724159, 0.042337629944086075, 0.03130989894270897, -0.03146237134933472, 0.03853457421064377, 0.01445886678993702, -0.010032347403466702, -0.036448098719120026, -0.008456213399767876, -0.04996802285313606, 0.029088672250509262, -0.07455257326364517, 0.006764036603271961, -0.07297366857528687, -0.5175081491470337, -0.50133216381073, 0.2496519684791565, 0.11966849863529205, 0.5869027972221375, -0.09999905526638031, -0.4857541620731354, 0.3131476640701294, 0.5598458647727966, 0.6631038188934326, 0.8212219476699829, -0.0865471214056015, -0.48207494616508484, -0.04540435969829559, 0.41486603021621704, 0.5802906155586243, 0.6043220162391663, 0.6005759835243225, 0.3344225287437439, -0.25115904211997986, 0.1985374540090561, -0.08388727158308029, -0.30476123094558716, -0.620032548904419, -0.02858499251306057, -0.0968838632106781, -0.10454224050045013, -0.40473535656929016, 0.16330857574939728, 0.20313242077827454, -0.6055145859718323, -0.28218337893486023, 0.2509758174419403, 0.36786240339279175, 0.4073032736778259, 0.11174564808607101, -0.13359388709068298, -0.08219671994447708, -0.33852285146713257, -0.12303692102432251, 0.17284300923347473, -0.2322748601436615, 0.04876382648944855, -0.16328324377536774, 0.33848345279693604, -0.23745901882648468, -0.12557637691497803, -0.2702411115169525, 0.02106730081140995, -0.06836903095245361, -0.08492666482925415, -0.33030131459236145, 0.4527568817138672, -0.2125178724527359, 0.08819811791181564, -0.11633121222257614, 0.16051331162452698, 0.4729965329170227, 0.42681884765625, 0.17570137977600098, 0.1389445662498474, 0.0049644820392131805, 0.1037856712937355, 0.24255165457725525, 0.35535183548927307, 0.06996601074934006, 0.07658756524324417, 0.023783955723047256, 0.1143355742096901, -0.10740599781274796, 0.053495585918426514, -0.2598189413547516, 0.03431742638349533, -0.18691790103912354, -0.046216025948524475, -0.26173165440559387, 0.06011604145169258, -0.22736883163452148, -0.04546787589788437, 0.06814233213663101, 0.4648949205875397, 0.33737727999687195, 0.5017407536506653, 0.32521989941596985, 0.17560546100139618, 0.007544396445155144, 0.09014162421226501, 0.04648911952972412, 0.13131994009017944, 0.028527041897177696, 0.08321276307106018, -0.06270352005958557, -0.04518578201532364, -0.1346738487482071, -0.2347024828195572, -0.1976862996816635, -0.2859897017478943, -0.19493673741817474, 0.12524746358394623, 0.11402113735675812, 0.28602129220962524, -0.31542038917541504, -0.4026474952697754, 0.027442673221230507, 0.08411482721567154, 0.033547740429639816, 0.21194608509540558, 0.025996133685112, 0.05434026941657066, 0.008397814817726612, -0.036291781812906265, 0.10382472723722458, 0.22751125693321228, -0.13150258362293243, 0.05340254679322243, -0.14518797397613525, 0.011243377812206745, -0.06667914986610413, -0.07075000554323196, -0.13593065738677979, -0.04648417606949806, -0.1345246583223343, -0.08863084763288498, -0.07854042947292328, 0.10468791425228119, -0.07047594338655472, -0.11250538378953934, -0.10049868375062943, 0.10659237951040268, 0.1535084992647171, 0.18913201987743378, -0.049355048686265945, 0.061205457895994186, -0.0955471396446228, -0.048022814095020294, 0.04201556369662285, 0.18866795301437378, -0.01577986218035221, 0.02855445072054863, -0.18296155333518982, 0.04761134088039398, 0.25505998730659485], [0.023018360137939453, 0.11890043318271637, 0.06176794692873955, 0.048098742961883545, 0.24541151523590088, 0.17279861867427826, 0.027438275516033173, -0.100375697016716, 0.046887267380952835, -0.3331358730792999, 0.11346197873353958, 0.012551565654575825, 0.01699637621641159, 0.042913611978292465, 0.01794103905558586, 0.03418349474668503, -0.018509939312934875, -0.2049323171377182, 0.14900366961956024, 0.12347937375307083, 0.11365777999162674, -0.010245312005281448, 0.2752224802970886, -0.04202307388186455, 0.03845701739192009, 0.07634062319993973, 0.22258588671684265, 0.11738741397857666, 0.26397812366485596, 0.08206769824028015, 0.05618032068014145, 0.10464611649513245, 0.02634580060839653, -0.24649770557880402, 0.12596791982650757, 0.04648949205875397, 0.15709476172924042, -0.08551451563835144, 0.00803493894636631, 0.0581587553024292, 0.00760655477643013, -0.0947687178850174, 0.16873744130134583, 0.17109641432762146, 0.04180971160531044, -0.14578041434288025, 0.17217516899108887, -0.042335834354162216, 0.35384446382522583, 0.04159949719905853, 0.2893182933330536, 0.38145503401756287, 0.15946583449840546, 0.1784055083990097, 0.12082148343324661, 0.4764218032360077, 0.1487133949995041, -0.11372251063585281, 0.2861440181732178, 0.20441965758800507, 0.28211405873298645, 0.22320279479026794, 0.2886376976966858, 0.16644427180290222, 0.09490733593702316, -0.13953076303005219, 0.01839047484099865, -0.0830056369304657, 0.0035082786343991756, -0.07669580727815628, 0.13276474177837372, -0.16799800097942352, -0.027240322902798653, 0.17367754876613617, 0.14334020018577576, 0.03502820432186127, 0.12749235332012177, -0.22985251247882843, -0.39135318994522095, -0.06421893835067749, -0.03750142455101013, -0.33393898606300354, 0.04708823561668396, -0.04388249292969704, 0.12458716332912445, -0.06736888736486435, 0.1483129858970642, 0.1340438276529312, 0.04874645918607712, -0.20241627097129822, 0.10451918840408325, 0.014678330160677433, 0.035623256117105484, -0.09223006665706635, 0.19482865929603577, -0.06542626768350601, -0.024913866072893143, -0.15289440751075745, 0.0499359667301178, -0.06876427680253983, -0.026556337252259254, -0.09398908168077469, -0.25609251856803894, -0.08789672702550888, -0.09866714477539062, -0.580233097076416, -0.15128669142723083, 0.015994898974895477, -0.051860906183719635, -0.29237666726112366, 0.48917749524116516, 0.680528461933136, 0.1319282203912735, -0.02585248090326786, 0.29601195454597473, 0.12351320683956146, 0.10379207134246826, 0.059484101831912994, 0.10521760582923889, -0.012425216846168041, -0.1770530641078949, 0.010614842176437378, 0.20275405049324036, 0.5434333682060242, 0.12466519325971603, 0.5525362491607666, 0.43187999725341797, 0.8617545962333679, 0.12753015756607056, 0.1461852341890335, 0.6217828392982483, 0.10717277228832245, 0.2687395513057709, 0.6088107228279114, 0.8142882585525513, 0.3704582750797272, -1.2947130016982555e-05, -0.5159088969230652, -0.33053454756736755, 0.08144854009151459, 0.15450894832611084, -0.027554688975214958, 0.27427273988723755, 0.21399129927158356, 0.017351500689983368, 0.044437456876039505, -0.005392876919358969, 0.03589046373963356, -0.5675560235977173, 0.014540375210344791, -0.032493676990270615, 0.0485040657222271, 0.02334391139447689, 0.007880344055593014, 0.0360475555062294, -0.04379028081893921, 0.01098207663744688, -0.023990552872419357, -0.005175345111638308, 0.016697725281119347, 0.022572113201022148, 0.011691637337207794, -0.039444297552108765, -0.03189538046717644, 0.000889873830601573, -0.008826646953821182, -0.04265820235013962, 0.05020872503519058, 0.006410506088286638, -0.036212991923093796, 0.022352412343025208, 0.022144127637147903, -0.3869694769382477, 0.025555964559316635, -0.03161562979221344, 0.01765831746160984, 0.048411644995212555, 0.033643390983343124, 0.025160718709230423, -0.010368837043642998, 0.009567847475409508, 0.01778494194149971, 0.012447971850633621, -0.010325051844120026, 0.007110964972525835, -0.020642295479774475, -0.028808679431676865, -0.04703209549188614, -0.04155198484659195, -0.03199133276939392, 0.048716675490140915, 0.010198809206485748, -0.04610373079776764, -0.026051582768559456, 0.011904308572411537, -0.015254060737788677, -0.13930866122245789, -0.01913801021873951, -0.012447613291442394, 0.005862328689545393, 0.0030180374160408974, 0.0327439121901989, 0.032614532858133316, 0.04194353148341179, -0.0016212447080761194, -0.022756753489375114, 0.0001739102735882625, -0.03374956548213959, 0.020850770175457, -0.006148914340883493, -0.016322802752256393, -0.043208491057157516, 0.02456073649227619, 0.028447255492210388, 0.046491388231515884, -0.018055276945233345, 0.015356207266449928, 0.0019210934406146407, -0.03246300667524338, -0.031860534101724625, -0.40943190455436707, -0.0292702317237854, 0.03711166977882385, 0.017805004492402077, 0.017404885962605476, 0.033564116805791855, 0.024942949414253235, 0.02198019251227379, 0.026442624628543854, -0.02162773720920086, -0.02702564373612404, -0.009336809627711773, 0.028293995186686516, 0.03566650301218033, 0.03753102943301201, -0.016076143831014633, -0.0064666434191167355, -0.03500359132885933, 0.03142465278506279, -0.03379607945680618, 0.03412012383341789, 0.21573758125305176, -0.18897895514965057, 0.006542524788528681, 0.4108482897281647, 0.11905614286661148, -0.28119826316833496, -0.6558740735054016, -0.2590455412864685, -0.48555365204811096, -0.09374021738767624, -0.08551312983036041, -0.6067250370979309, 0.29580917954444885, 0.32535097002983093, 0.1651463806629181, -0.037400633096694946, -0.2012898176908493, -0.0024801953695714474, -0.21515555679798126, 0.12294300645589828, 0.13286113739013672, 0.05585016310214996, -0.0641082152724266, -0.4800785481929779, 0.1838197410106659, -0.2506917119026184, -0.507636547088623, -0.019244829192757607, -0.08764243870973587, -0.13865093886852264, -1.1859080791473389, -0.4408029317855835, -0.7741110920906067, -0.3454558849334717, -0.424552321434021, -0.4680517613887787, -0.250868558883667, -0.47537851333618164, -0.3086461126804352, -0.21278385818004608, -0.1638251394033432, 0.26743704080581665, 0.38015562295913696, 0.3581019639968872, 0.04051215201616287, 0.1736554056406021, 0.09032130241394043, 0.09970453381538391, -0.09928559511899948, 0.016652045771479607, 0.05410976707935333, 0.26839789748191833, 0.3360956907272339, 0.15609806776046753, -0.05097073316574097, 0.14020971953868866, -0.11572784185409546, 0.12876459956169128, 0.02430092729628086, -0.1621210277080536, -0.04753440245985985, -0.06910961866378784, -0.18387675285339355, -0.0511331669986248, -0.09863226115703583, 0.08356939256191254, 0.12098439782857895, 0.11667869240045547, 0.007900933735072613, 0.10660549253225327, -0.05344971641898155, 0.06274561583995819, 0.15518200397491455, 0.030442683026194572, 0.07766030728816986, -0.12462090700864792, 0.25366532802581787, 0.2858622968196869, 0.031699687242507935, 0.09681650996208191, 0.00030655565205961466, 0.3016977906227112, 0.052847057580947876, 0.06421177089214325, 0.1492803990840912, -0.11967398226261139, -0.3606400489807129, -0.16385050117969513, -0.24595899879932404, -0.13388575613498688, 0.030069638043642044, 0.062355417758226395, -0.13413554430007935, 0.20425915718078613, -0.03651805594563484, 0.05343496799468994, 0.11660148203372955, 0.03433721885085106, -0.035934317857027054, -0.14092305302619934, -0.04259838908910751, -0.07485739886760712, -0.3681424558162689, 0.046068768948316574, -0.45953598618507385, -0.14207372069358826, -0.06976787745952606, 0.025135556235909462, -0.06369230151176453, -0.024509882554411888, -0.05788964405655861, 0.01041407510638237, -0.07231918722391129, 0.23802009224891663, 0.06114527955651283, 0.11769931018352509, 0.022942068055272102, 0.12133115530014038, -0.15275415778160095, 0.06804969906806946, 0.09202684462070465, 0.06363581120967865, 0.023363741114735603, 0.3592985272407532, 0.14575840532779694, 0.06427560746669769, -0.08971984684467316, 0.06440061330795288, -0.3281386196613312, 0.09824936836957932, 0.025372343137860298, -0.0044312309473752975, 0.07158774137496948, 0.07382369041442871, -0.0059273820370435715, 0.05670551955699921, -0.2258729785680771, 0.10295474529266357, 0.0628923550248146, 0.04516686126589775, -0.05302528291940689, 0.2505381107330322, -0.06239543855190277, -0.2516137361526489], [0.25895172357559204, -0.02568587101995945, -0.12419258058071136, -0.05286451801657677, -0.044428590685129166, -0.31565457582473755, -0.1526351422071457, -0.10037466138601303, 0.03018793649971485, -0.19066284596920013, -0.07018263638019562, -0.03630530834197998, -0.15087535977363586, -0.1735178530216217, -0.05817175656557083, -0.047637876123189926, -0.1390744298696518, -0.06914101541042328, 0.10955668985843658, 0.16810689866542816, 0.1196393147110939, -0.17945244908332825, 0.1345646232366562, 0.03662431240081787, 0.13085228204727173, 0.10980063676834106, -0.03159591555595398, 0.1270982027053833, 0.10671583563089371, -0.2715107500553131, -0.18708717823028564, -0.239338219165802, 0.03145756945014, -0.29342520236968994, -0.2628204822540283, 0.005636228248476982, 0.026849552989006042, 0.004213886801153421, -0.041872289031744, -0.021632935851812363, 0.012707127258181572, -0.08021797239780426, 0.1461043655872345, 0.05796728655695915, 0.19202324748039246, -0.06276869028806686, 0.09002266079187393, 0.13848887383937836, -0.06191938742995262, -0.12853460013866425, 0.12205646187067032, 0.03918001055717468, 0.5693319439888, -0.23570038378238678, -0.08063468337059021, -0.3225007653236389, 0.13719555735588074, -0.25519153475761414, -0.18186694383621216, 0.0590750053524971, -0.07362432777881622, -0.22729088366031647, 0.039718400686979294, -0.1861395388841629, -0.1956867128610611, -0.0798715204000473, 0.13438962399959564, 0.1816229224205017, -0.03095659427344799, -0.01116734929382801, 0.11492009460926056, 0.036036863923072815, 0.7537779211997986, 0.2518860101699829, -0.19589263200759888, 0.14052575826644897, 0.608610987663269, 0.04206366464495659, 0.210049569606781, 0.1339835226535797, 0.458315908908844, -0.061350446194410324, 0.08951067924499512, 0.24018439650535583, -0.11376848071813583, -0.11276943236589432, -0.1299101561307907, -0.05303455516695976, -0.17330914735794067, -0.027927929535508156, 0.21485649049282074, 0.14943021535873413, 0.05736251175403595, -0.1590026468038559, 0.1573248952627182, 0.03706549480557442, 0.5994316935539246, 0.07279360294342041, 0.115309938788414, 0.4208834171295166, 0.4183787703514099, -0.2518056333065033, 0.23373928666114807, 0.42157620191574097, 0.1987263262271881, -0.15465697646141052, -0.09314512461423874, -0.3614015281200409, -0.21007929742336273, -0.1283446103334427, -0.40676039457321167, 0.22525453567504883, -0.024950921535491943, -0.05502614378929138, 0.21986331045627594, 0.33991628885269165, 0.20420461893081665, -0.16489531099796295, 0.1349363476037979, 0.13126002252101898, 0.43132710456848145, 0.06908539682626724, -0.2626412510871887, -0.5582208633422852, 0.4157695770263672, -0.5185543298721313, -0.3522219657897949, 0.007852348499000072, -0.2662794589996338, -0.6346776485443115, -0.3187513053417206, -0.6875004768371582, -0.8619232177734375, -0.5461527109146118, -1.0983147621154785, -0.23323668539524078, -0.036398593336343765, -0.10310537368059158, 0.02883785218000412, 0.0019252197816967964, 0.1090872511267662, -0.11850111186504364, 0.07296761870384216, -0.03845633938908577, -0.0064017632976174355, -0.04155943915247917, -0.04796375706791878, 0.04646085947751999, -1.193321704864502, 0.022747069597244263, -0.01134874951094389, -0.01032031886279583, -3.2916886993916705e-05, 0.039748791605234146, -0.007050258573144674, 0.04217155650258064, 0.029819855466485023, 0.0349622406065464, -0.046221960335969925, -0.023830866441130638, -0.04152219742536545, -0.010824327357113361, -0.010555913671851158, 0.010356225073337555, 0.04566289484500885, 0.02287832275032997, -0.03546418994665146, -0.031962186098098755, 0.03848373889923096, 0.005073234438896179, 0.014397777616977692, -0.026656346395611763, -1.7594382762908936, 0.014509906992316246, -0.03344434127211571, 0.0332627072930336, 0.02539796568453312, -0.029721207916736603, -0.020899659022688866, -0.01198185607790947, 0.00793144479393959, -0.01869487762451172, 0.04875393211841583, -0.049089692533016205, -0.028805233538150787, -0.030934492126107216, 0.013779859989881516, 0.00723224924877286, -0.014522708021104336, 0.04349625110626221, -0.0439954549074173, 0.01796252280473709, -0.028043419122695923, -0.011605104431509972, -0.0490790456533432, -0.03804552182555199, -0.1499730497598648, 0.022234579548239708, -0.019137585535645485, 0.026659682393074036, -0.02762027457356453, -0.01262725330889225, 0.006169127766042948, 0.042704593390226364, -0.013735685497522354, 0.029545359313488007, 0.014059732668101788, 0.03099687397480011, 0.032194834202528, 0.02068229764699936, -0.015368273481726646, -0.014304088428616524, 0.019840631633996964, 0.027777940034866333, -0.0027201632037758827, 0.025547361001372337, -0.03066135011613369, 0.02872667834162712, -0.0062541295774281025, -0.035072486847639084, 0.17558549344539642, -0.03892166540026665, 0.010280469432473183, -0.030225174501538277, -0.014594434760510921, -0.0031931931152939796, -0.031096670776605606, 0.0013086558319628239, -0.006468065083026886, 0.016142670065164566, 0.03681730106472969, -0.030765829607844353, 0.027864770963788033, -0.0010797807481139898, -0.029129136353731155, -0.023113207891583443, 0.0129724545404315, 0.010611540637910366, -0.0016461723716929555, -0.02537255920469761, 0.5541557669639587, -0.10059098899364471, 0.06858248263597488, -0.24846041202545166, 0.6653472185134888, -0.24978753924369812, 0.020570524036884308, 0.2335452139377594, 0.0723903700709343, 0.09230896085500717, 0.3328542113304138, -0.0717717632651329, -0.7135612368583679, -0.4375714063644409, -0.15697194635868073, -0.1669674515724182, -0.12625063955783844, -0.01877419464290142, 0.1584039032459259, 0.3393894135951996, -0.08403738588094711, -0.3041015863418579, 0.31235650181770325, -0.2427617609500885, 0.49613237380981445, 0.214371919631958, -0.35409194231033325, -0.03350238502025604, 0.02370290458202362, -0.42297258973121643, -0.1501026451587677, 0.18015147745609283, -0.06534827500581741, -0.03243328258395195, -0.08982949703931808, -0.025082338601350784, -0.09930440783500671, -0.08541159331798553, -0.25779810547828674, 0.08335898816585541, 0.1339351087808609, -0.0951872393488884, 0.2881791293621063, 0.08788023144006729, 0.20286871492862701, -0.3332937955856323, 0.21786457300186157, 0.09344372898340225, -0.3045019805431366, -0.16962093114852905, 0.08361554890871048, -0.06343630701303482, -0.19109585881233215, -0.6204022765159607, -0.3912913501262665, -0.2967159152030945, -0.5312367081642151, -0.005104351788759232, -0.21158352494239807, -0.20376980304718018, -0.02622508443892002, -0.10630686581134796, -0.008599827066063881, -0.15061694383621216, 0.019665293395519257, -0.16556984186172485, 0.1402580589056015, 0.15886464715003967, 0.17653875052928925, -0.16793958842754364, 0.11883693933486938, 0.01914406754076481, -0.12448233366012573, -0.07243991643190384, -0.2671626806259155, -0.24301265180110931, -0.23701466619968414, -0.16542263329029083, -0.357319712638855, -0.2655692994594574, -0.03793463483452797, -0.21637557446956635, -0.09958068281412125, 0.06751758605241776, 0.03010510839521885, -0.08655416965484619, 0.15427398681640625, -0.22762726247310638, -0.09264775365591049, -0.04164334759116173, 0.016841841861605644, 0.040534380823373795, 0.08004242181777954, -0.14953447878360748, 0.16194111108779907, 0.02316952683031559, 0.08092133700847626, -0.038361042737960815, 0.015251520089805126, 0.18659241497516632, -0.021666066721081734, -0.10830065608024597, -0.03725843504071236, -0.10255654901266098, 0.32549673318862915, 3.628229023888707e-06, 0.03999064490199089, 0.09117233008146286, 0.13273277878761292, -0.038063373416662216, 0.1949263960123062, 0.040487080812454224, -0.06492204964160919, -0.08825825899839401, 0.19085292518138885, 0.1401350349187851, 0.11550771445035934, -0.15638139843940735, 0.1685091257095337, 0.10698789358139038, 0.24875779449939728, -0.07522561401128769, -0.15334074199199677, -0.02657381072640419, -0.28922760486602783, -0.26258233189582825, -0.13350816071033478, -0.14486099779605865, -0.002019375329837203, -0.2543453276157379, -0.05397429317235947, -0.04249722510576248, -0.14292824268341064, -0.24844643473625183, -0.12989109754562378, -0.049825508147478104, -0.1122882217168808, -0.09223166853189468, 0.15128690004348755, 0.14522989094257355, 0.10350192338228226, -0.19788572192192078, 0.20639486610889435, 0.09177251160144806, 1.253475308418274], [-0.11558187007904053, -0.0802309513092041, -0.04805143177509308, 0.00475369393825531, 0.6881290078163147, 0.05535983294248581, 0.12374015152454376, -0.004882196430116892, 0.04834391921758652, 0.28699854016304016, 0.24248403310775757, 0.007038326933979988, 0.0430510938167572, 0.026332028210163116, -0.029501453042030334, 0.10877704620361328, 0.0407106876373291, 0.09327766299247742, -0.12750600278377533, -0.187214657664299, -0.18424482643604279, 0.04995300620794296, 0.14438799023628235, 0.1338895559310913, -0.05610230565071106, -0.00032591927447356284, 0.10509456694126129, -0.020876344293355942, 0.7697924971580505, -0.09123935550451279, 0.3385038375854492, 0.12320172041654587, 0.08763766288757324, 0.205495223402977, 0.21513116359710693, -0.04755190387368202, 0.08174951374530792, 0.20653294026851654, 0.1377166509628296, 0.15403318405151367, 0.12976782023906708, 0.17549100518226624, -0.17269779741764069, -0.36239153146743774, -0.025607477873563766, -0.053487129509449005, 0.08046607673168182, 0.16687513887882233, 0.23984672129154205, 0.08846815675497055, 0.21150316298007965, -0.13403449952602386, 0.6863477230072021, -0.09064653515815735, 0.20686744153499603, 0.09433834999799728, 0.1819259226322174, 0.21260975301265717, 0.1702466756105423, 0.09000971913337708, 0.06258334219455719, 0.10181322693824768, 0.05934401601552963, 0.0759124681353569, 0.13438951969146729, 0.03512958437204361, 0.033858299255371094, -0.0865250751376152, -0.07842611521482468, 0.01929350756108761, 0.0603095181286335, 0.08662927150726318, 0.08593946695327759, 0.012115927413105965, 0.07148754596710205, -0.03786234185099602, 0.3346463441848755, 0.037708573043346405, 0.13041001558303833, 0.17404168844223022, 0.14133428037166595, 0.2032897025346756, 0.13573326170444489, 0.15049387514591217, 0.015255184844136238, 0.1455105096101761, -0.03563518077135086, 0.24360871315002441, 0.26238736510276794, -0.1604273021221161, 0.12095912545919418, -0.15352386236190796, -0.22973619401454926, -0.016562117263674736, 0.08737044036388397, 0.1963113695383072, 0.18615128099918365, 0.018434589728713036, 0.385320246219635, -0.03741733729839325, 0.053509362041950226, -0.10308590531349182, 0.3359261453151703, 0.13838978111743927, 0.1115577295422554, 0.21780116856098175, 0.14207711815834045, 0.30942270159721375, 0.04107442870736122, 0.11842608451843262, 0.05271392688155174, 0.0392160601913929, 0.21905426681041718, 0.10100637376308441, -0.10751119256019592, -0.5072495937347412, -0.21636952459812164, 0.1022573783993721, 0.23276303708553314, 0.10523339360952377, 0.17212432622909546, -0.6254618763923645, -0.08688446879386902, -0.0973515659570694, 0.2809450328350067, 0.18748702108860016, 0.13319063186645508, -0.19478200376033783, -0.11475265771150589, 0.44265711307525635, 0.1593528836965561, 0.054101575165987015, -0.011013370007276535, -0.09421606361865997, 0.04864988476037979, 0.04755983129143715, -0.036162201315164566, 0.0924539640545845, 0.2240186333656311, -0.043080076575279236, -0.16942064464092255, -0.045758314430713654, -0.15375186502933502, -0.043281614780426025, 0.0012220136122778058, -0.01923377811908722, -0.02724170684814453, -0.01927737519145012, 0.09596866369247437, -0.009166890755295753, 0.03459372743964195, 0.007337865419685841, 0.0005625944468192756, -0.0316709540784359, 0.020559797063469887, -0.04714273288846016, 0.011907462030649185, 0.01828647218644619, 0.009223089553415775, 0.035867612808942795, 0.012231867760419846, -0.01407541986554861, -0.03566281497478485, -0.047300588339567184, 0.025720998644828796, 0.027742015197873116, -0.038874734193086624, 0.01364461425691843, -0.018740784376859665, 0.042925264686346054, -0.017566712573170662, 0.042185865342617035, -0.5291287302970886, 0.028188234195113182, 0.034829527139663696, 0.01589488796889782, 0.017276115715503693, -0.04332780838012695, -0.011635134927928448, -0.005777253769338131, 0.02472843788564205, -0.019748983904719353, 0.023352203890681267, 0.0346037782728672, 0.021974870935082436, 0.026231205090880394, -0.006792920175939798, 0.024413447827100754, -0.017477141693234444, 0.04414844140410423, -0.0013079693308100104, -0.0029728724621236324, -0.044869985431432724, 0.04713636636734009, -0.0071305944584310055, 0.037958983331918716, -0.5065053105354309, -0.0426383838057518, -0.008157579228281975, -0.04075139760971069, 0.009793260134756565, 0.0006864671595394611, -0.018689408898353577, 0.03191068395972252, 0.0330180749297142, -0.044999320060014725, -0.0408288910984993, 0.029815541580319405, -0.030953921377658844, 0.00983437243849039, -0.0135731790214777, 0.009113634005188942, -0.028123967349529266, 0.00016285899619106203, -0.018042050302028656, -0.02295870892703533, -0.025056354701519012, 0.011383738368749619, 0.032977912575006485, -0.0012559511233121157, -0.7152359485626221, 0.042049385607242584, 0.04108290374279022, -0.007398528978228569, -0.04173241928219795, 0.011959807947278023, 0.015216975472867489, -0.04032815620303154, -0.04571914300322533, 0.005345822777599096, 0.049766648560762405, -0.045585375279188156, -0.024971535429358482, -0.0175759457051754, -0.04501783475279808, -0.031380314379930496, 0.04000356048345566, 0.03897961601614952, -0.03749430924654007, 0.0010925513925030828, -0.24226383864879608, -0.45033013820648193, -0.6770645976066589, 0.2864053547382355, -0.5420846343040466, 0.3555978834629059, -0.8716394901275635, -0.516798734664917, -0.16569800674915314, 0.16137391328811646, 0.12316034734249115, 0.19687536358833313, -0.10861362516880035, -1.1071621179580688, -0.9076209664344788, -1.3675419092178345, -0.245748370885849, -0.17793406546115875, 0.08791148662567139, 0.21117819845676422, -0.245394766330719, 0.1077093705534935, 0.2243419587612152, -0.01415465772151947, -0.7535629272460938, -0.14717355370521545, -0.5486509203910828, 0.1496758610010147, -0.5689990520477295, 0.09480758011341095, -0.1183844581246376, -0.07825768738985062, -0.15419675409793854, 0.1630922555923462, 0.13784486055374146, -0.14136260747909546, -0.1334816813468933, 0.1390983611345291, -0.1746499389410019, 0.1431514173746109, -0.14140042662620544, -0.028214776888489723, -0.20503641664981842, -0.17444682121276855, -0.15377317368984222, 0.08709389716386795, 0.13612475991249084, 0.07224015146493912, -0.28260573744773865, -0.060058869421482086, -0.13962139189243317, 0.03366328403353691, -0.7519119381904602, 0.025560008361935616, 0.1273413747549057, -0.17556877434253693, -0.16889023780822754, 0.21648016571998596, 0.21334350109100342, -0.0629095584154129, 0.06786312162876129, 0.06010183319449425, 0.013307890854775906, -0.23409292101860046, -0.3556269109249115, 0.1510404795408249, -0.19050826132297516, -0.17632097005844116, -0.07464397698640823, -0.0024434374645352364, 0.13545535504817963, 0.11201806366443634, -0.20916782319545746, 0.0015933774411678314, -0.2505441904067993, -0.016192380338907242, -0.4267767369747162, 0.07745328545570374, -0.056807007640600204, 0.018811704590916634, 0.02796681597828865, 0.13533681631088257, 0.20082595944404602, -0.1680285632610321, -0.05042882636189461, -0.0017088832100853324, -0.022798627614974976, 0.07440514117479324, -0.09734609723091125, -0.006859953980892897, -0.038467880338430405, 0.14455217123031616, -0.19456051290035248, 0.009451338090002537, 0.1144438087940216, 0.13524632155895233, -0.18595807254314423, 0.09956206381320953, -0.06573614478111267, 0.08799275755882263, -0.04813356697559357, -0.10008914023637772, 0.043686553835868835, 0.12011963129043579, 0.13261713087558746, 0.13373105227947235, 0.22353315353393555, -0.006356011610478163, 0.04914854094386101, 0.09036064147949219, -0.028596624732017517, 0.11366859078407288, 0.10393466800451279, 0.014091668650507927, -0.21831637620925903, -0.2927537262439728, -0.19099465012550354, 0.04830949380993843, 0.22036625444889069, 0.13377292454242706, -0.030499272048473358, -0.05883694812655449, -0.02450997196137905, 0.04373801499605179, 0.38783085346221924, 0.043075792491436005, 0.13943113386631012, 0.0686342790722847, 0.06486914306879044, 0.28658977150917053, 0.20152780413627625, 0.015619238838553429, 0.06441258639097214, 0.0889139398932457, -0.010875835083425045, 0.030143672600388527, 0.07947186380624771, 0.09517310559749603, -0.0918213427066803, -0.22056420147418976, -0.18586646020412445, -0.03340407460927963, 0.12208486348390579, 0.11137104034423828, 0.4375947415828705], [0.182901531457901, 0.07690650969743729, -0.0316200889647007, -0.06006058305501938, 0.24895009398460388, -0.38793087005615234, -0.055521804839372635, -0.386392742395401, 0.08383642137050629, 0.16270363330841064, 0.06996112316846848, 0.24454006552696228, 0.10984768718481064, -0.15127602219581604, -0.09448446333408356, 0.012376026250422001, -0.029850097373127937, -0.13089729845523834, -0.09427432715892792, -0.06890169531106949, -0.2780376076698303, -0.028781890869140625, -0.09563875198364258, 0.21302162110805511, 0.08974851667881012, 0.05091964080929756, -0.03231509029865265, 0.02277195081114769, 0.17885780334472656, -0.42664438486099243, 0.038205087184906006, -0.2270757257938385, 0.17092157900333405, 0.37861526012420654, 0.3226158320903778, 0.3202885389328003, 0.1524742990732193, -0.03671226277947426, -0.03429167717695236, 0.004972330294549465, -0.04520780220627785, -0.16329701244831085, 0.059210989624261856, 0.029170125722885132, -0.09270228445529938, 0.07933561503887177, -0.09254526346921921, 0.5758876800537109, 0.19075021147727966, 0.019216865301132202, 0.1072651594877243, 0.022037319839000702, 0.13457052409648895, -0.40390267968177795, 0.000738747650757432, -0.31013330817222595, 0.07367531955242157, 0.24777033925056458, 0.019308913499116898, 0.2476465404033661, 0.31743124127388, -0.09786847978830338, -0.06644222885370255, 0.0502278134226799, -0.01047142967581749, -0.11953604966402054, 0.009131093509495258, -0.1488933116197586, -0.08071289211511612, 0.1793440580368042, -0.16914083063602448, 0.40619364380836487, 0.2576756179332733, 0.1932966411113739, 0.2020692676305771, -0.07495751976966858, 0.41659000515937805, -0.31308814883232117, 0.041440047323703766, -0.418866902589798, 0.059722352772951126, 0.19663105905056, -0.0450030118227005, 0.09332598000764847, 0.02350524626672268, -0.06342495232820511, -0.02859564684331417, 0.1011035293340683, 0.0771978572010994, -0.23072004318237305, -0.020239975303411484, 0.05803224816918373, -0.34195733070373535, 0.08846632391214371, -0.11833548545837402, 0.19104574620723724, 0.17135658860206604, 0.175848588347435, -0.5720406770706177, -0.5049084424972534, 0.2720009386539459, -0.2816773056983948, 0.013851732946932316, -0.4319782555103302, 0.1533483862876892, 0.3256712853908539, 0.2622549831867218, 0.3497224748134613, 0.15132907032966614, 0.07091201841831207, 0.002747769234701991, -0.014210691675543785, 0.12503767013549805, 0.025334861129522324, 0.37044426798820496, -0.15560929477214813, -0.7717117667198181, 0.3506704270839691, -0.07899051904678345, 0.30742907524108887, 0.09752016514539719, 0.7075170278549194, 0.5139451026916504, 0.1879693865776062, 0.17779095470905304, -0.010121812112629414, 0.06447642296552658, -0.17780578136444092, -0.06433148682117462, 0.1572035849094391, 0.14627690613269806, 0.0875471979379654, 0.025524966418743134, -0.5978626012802124, -0.33943623304367065, 0.2704543471336365, 0.08910428732633591, -0.2110203504562378, 0.2805936336517334, 0.10731874406337738, -0.441437304019928, 0.5270203948020935, 0.3941708207130432, 0.522641658782959, 0.015621030703186989, -0.01193616259843111, 0.010805456899106503, -0.008531847037374973, 0.11882805079221725, -0.021442677825689316, 0.05062388256192207, 0.00859084539115429, -0.02787034772336483, 0.005785340443253517, -0.0508451871573925, 0.0004495664034038782, 0.03912323713302612, 0.005878386087715626, 0.012142862193286419, -0.048007190227508545, -0.009585891850292683, 0.030073458328843117, -0.037367478013038635, -0.02384174056351185, 0.0344422422349453, 0.014635979197919369, 0.023824650794267654, -0.047525469213724136, 0.03243646398186684, -0.011116047389805317, 0.010711044073104858, 0.041194844990968704, -0.13529334962368011, 0.014581616036593914, -0.04607328400015831, 0.037731148302555084, 0.014964849688112736, 0.005670817568898201, -0.020417053252458572, 0.019215496256947517, -0.02645346336066723, 0.009742292575538158, 0.04279932752251625, -0.03825422748923302, -0.014541475102305412, 0.011903725564479828, 0.008846373297274113, 0.0007008599350228906, 0.04384596645832062, -0.01324387639760971, 0.013146456331014633, 0.02700943499803543, -0.00988163985311985, 0.03330201655626297, 0.033285047858953476, 0.022694570943713188, -0.1581421047449112, 0.044268444180488586, -0.029448553919792175, 0.015751447528600693, 0.010233220644295216, 0.035972293466329575, -0.04177399352192879, 0.008884983137249947, -0.029350094497203827, 0.027012916281819344, 0.017500951886177063, -0.03964468836784363, -0.0031907265074551105, 0.014256584458053112, 0.0217104721814394, 0.045340124517679214, 0.022887837141752243, 0.0097194854170084, 0.027186322957277298, -0.04822510853409767, 0.03397960588335991, -0.005992136895656586, 0.028844177722930908, 0.014594410546123981, -0.18557007610797882, 0.03587459400296211, -0.029710253700613976, 0.014372127130627632, 0.022341689094901085, -0.018137434497475624, 0.018462831154465675, -0.05041181668639183, -0.02574068307876587, 0.02477930672466755, 0.02626822143793106, -0.04678039252758026, 0.017637265846133232, 0.004792134743183851, 0.049748945981264114, -0.049710214138031006, -0.012146683409810066, -0.02886326052248478, -0.031010933220386505, -0.008323907852172852, 0.13042251765727997, -0.05600226670503616, 0.22820188105106354, -0.4427831470966339, 0.16911911964416504, -0.08382844179868698, -0.13586901128292084, -0.14745548367500305, -0.20936626195907593, -0.41346052289009094, -0.5211088061332703, -0.10185270011425018, -0.3097931146621704, -0.8844057321548462, -0.9341489672660828, -0.18090581893920898, 0.10702169686555862, -0.07144135981798172, -0.49669337272644043, -0.45521166920661926, -0.5710059404373169, -0.13455887138843536, 0.08309739083051682, -0.9138085246086121, -0.11559639871120453, 0.01282841432839632, -0.19887404143810272, -0.22654007375240326, 0.09955406934022903, -0.16939808428287506, -0.07115807384252548, -0.18969683349132538, -0.03730491176247597, -0.060698527842760086, 0.21748849749565125, 0.23874734342098236, -0.28720223903656006, -0.24351119995117188, 0.0865640789270401, -1.460616111755371, 0.03813464194536209, -0.10193989425897598, -0.03185541555285454, 0.13002048432826996, -0.33216750621795654, -0.2567312717437744, 0.07233143597841263, -0.25265851616859436, 0.017302894964814186, -1.1945347785949707, -0.12015116959810257, -0.10303663462400436, 0.013937716372311115, -0.24659369885921478, -0.10761226713657379, -0.11764614284038544, 0.07623876631259918, 0.1641218662261963, 0.17888662219047546, 0.39386722445487976, 0.21622708439826965, -0.23614883422851562, -0.15974299609661102, -0.2698133885860443, -0.0501069575548172, 0.04347936809062958, -0.07279249280691147, -0.05413383990526199, -0.00807299092411995, -0.08527997136116028, 0.0831022635102272, -0.019125478342175484, 0.13942529261112213, -0.13489212095737457, 0.1960204541683197, 0.14404232800006866, -0.12020541727542877, -0.3331228792667389, -0.025037553161382675, -0.16889788210391998, 0.005750555079430342, 0.00993355829268694, -0.08058302104473114, 0.11703582108020782, 0.009165802039206028, -0.28414639830589294, -0.09173227101564407, 0.031248698011040688, -0.13774150609970093, -0.11810147017240524, -0.18284469842910767, 0.08124080300331116, 0.08613292872905731, -0.2555180788040161, -0.07183707505464554, 0.04009410738945007, 0.20468048751354218, -0.44944334030151367, -0.17798767983913422, -0.1485203057527542, 0.15883255004882812, -0.3691907227039337, -0.02144150622189045, -0.26139482855796814, 0.11798013001680374, 0.1832984834909439, 0.054581791162490845, 0.2538051903247833, 0.0911601260304451, -0.03785770758986473, 0.02130749821662903, -0.12355737388134003, -0.025144822895526886, -0.07265324890613556, -0.12492410838603973, -0.07293055206537247, -0.16154426336288452, -0.16338907182216644, -0.21772363781929016, 0.028221946209669113, 0.11006110906600952, -0.019581956788897514, -0.046082496643066406, -0.04552542790770531, -0.0325821153819561, -0.37859228253364563, -0.009427760727703571, -0.3828194737434387, 0.10207909345626831, 0.17757734656333923, 0.023716019466519356, 0.1838420033454895, 0.10739711672067642, -0.1927948296070099, -0.13193663954734802, -0.029657328501343727, 0.007712904829531908, -0.13236330449581146, -0.06134108826518059, -0.11189503222703934, -0.19022205471992493, -0.02672465145587921, -0.029517915099859238, 0.16909779608249664, -0.09394751489162445], [0.16254985332489014, 0.10156361013650894, -0.037388112396001816, 0.08073640614748001, -0.07157041877508163, -0.12335222214460373, -0.1645776331424713, -0.08504604548215866, 0.10410710424184799, 0.03445499762892723, -0.017925744876265526, -0.008324974216520786, 0.03357943519949913, -0.06202682480216026, -0.12581729888916016, -0.08614615350961685, 0.0018742377869784832, -0.027529362589120865, 0.11155679076910019, 0.12318534404039383, 0.15564517676830292, -0.07211720198392868, -0.09589777141809464, 0.030446063727140427, 0.2495459020137787, 0.11399970948696136, -0.07594145834445953, 0.10726291686296463, 0.06889966875314713, -0.007319583557546139, -0.08664695173501968, -0.02250102534890175, 0.16217286884784698, 0.03375812992453575, 0.11687994003295898, 0.08662000298500061, 0.03985949978232384, -0.09950772672891617, -0.15195882320404053, -0.03733668848872185, -0.058516088873147964, 0.01700163632631302, 0.0927433967590332, 0.14028280973434448, 0.39703115820884705, -0.08507406711578369, -0.14015504717826843, -0.00327867129817605, 0.193574458360672, 0.14024458825588226, 0.04796844348311424, -0.006160793360322714, 0.11077748984098434, -0.33380910754203796, -0.0937233492732048, 0.019101543352007866, 0.20238515734672546, 0.2359389364719391, 0.1504073441028595, 0.10456419736146927, 0.1398071050643921, 0.14824756979942322, 0.09130068123340607, -0.03300631791353226, 0.02609686739742756, 0.11829356104135513, 0.2670446038246155, 0.27894318103790283, 0.5512350797653198, 0.1224779561161995, -0.16769026219844818, 0.04721023142337799, 0.03197762370109558, 0.5910393595695496, 0.175227090716362, 0.5070127844810486, 0.15305599570274353, -0.14664268493652344, -0.06888297945261002, -0.13616158068180084, -0.09667148441076279, -0.09061922132968903, 0.10851844400167465, 0.13845504820346832, 0.25363633036613464, 0.1091366559267044, -0.1222459003329277, -0.04016224667429924, 0.01414698176085949, -0.08129329979419708, -0.07764608412981033, -0.009835381992161274, 0.17399372160434723, -0.011966561898589134, -0.22774086892604828, 0.48314952850341797, 0.2903788387775421, 0.016042383387684822, -0.00503311213105917, 0.4117201566696167, -0.029953135177493095, -0.2648145258426666, -0.07057603448629379, -0.23809967935085297, 0.0978989377617836, -0.15220573544502258, -0.16499494016170502, -0.6700372099876404, -0.6177911162376404, -0.16286084055900574, -0.09698396176099777, 0.043459974229335785, 0.29215896129608154, 0.6265230774879456, 0.5639863014221191, 0.40751323103904724, 0.41932493448257446, 0.04266219213604927, 0.03719368949532509, -0.05508645996451378, 0.3106847107410431, -0.44407644867897034, -0.615858793258667, -0.38489359617233276, -0.08338403701782227, -0.09767158329486847, -0.09680759906768799, 0.20638570189476013, -0.04741774499416351, 0.3332637548446655, 0.46902409195899963, 0.4070667326450348, 0.721082329750061, 0.2816941738128662, -0.1246274784207344, -0.08637245744466782, -0.3479575514793396, -0.30633291602134705, 0.028416424989700317, 0.06086975708603859, 0.09589138627052307, -0.19574718177318573, -0.20353573560714722, -0.2559584081172943, -0.04026908800005913, 0.013600986450910568, 0.009861420840024948, -0.026305319741368294, -0.013773328624665737, 0.021147647872567177, -0.04604858532547951, -0.0027722239028662443, -0.02193976752460003, -0.008836780674755573, 0.02837740071117878, -0.0054817795753479, -0.03539569675922394, 0.035850346088409424, -0.04658408463001251, -0.01750296726822853, 0.019637394696474075, 0.04504716023802757, 0.0494634285569191, -0.011972645297646523, 0.017006754875183105, -0.04475881904363632, -0.009916731156408787, -0.015852907672524452, 0.014467548578977585, -0.03339221328496933, 0.011010789312422276, 0.02633015625178814, 0.29227128624916077, -0.00861749891191721, 0.04656168818473816, -0.04815177246928215, -0.014442086219787598, 0.019321482628583908, 0.01306870300322771, 0.02400120347738266, -0.03381892293691635, 0.031380631029605865, -0.047831643372774124, -0.034945398569107056, -0.003466018009930849, -0.049512580037117004, -0.04844343662261963, -0.045243039727211, 0.04097506403923035, 0.0111793652176857, -0.016261380165815353, -0.0020945905707776546, -0.04442179948091507, -0.04813366010785103, -0.035541731864213943, -0.049305230379104614, 0.005314594600349665, -0.01783413626253605, -0.013757630251348019, -0.04388804733753204, 0.008440829813480377, -0.0076464503072202206, -0.03469615429639816, 0.0326765701174736, 0.04295865818858147, -0.03632660210132599, 0.028875606134533882, -0.008275492116808891, -0.0004811588441953063, 0.02169306017458439, -0.009291772730648518, 0.04330183565616608, 0.03135685250163078, -0.03308282420039177, -0.031015215441584587, -0.050495848059654236, 0.01631717011332512, -0.03833498805761337, -0.04271755740046501, -0.032666709274053574, -0.0241557527333498, -0.041497670114040375, 0.04545874148607254, 0.028468148782849312, 0.04515606909990311, -0.02472202107310295, -0.02090325579047203, -0.017881883308291435, 0.000995368231087923, -0.03658071532845497, 0.007471531629562378, -0.03266322985291481, 0.008053451776504517, 0.04668355733156204, 0.008607893250882626, 0.03717591613531113, -0.03629753738641739, -0.007192333694547415, -0.031469617038965225, -0.005654377397149801, -0.12504160404205322, 0.03698234632611275, 0.047620002180337906, -0.24271562695503235, 0.4273892045021057, -0.4243725836277008, -0.18021546304225922, -0.12223562598228455, -0.12838557362556458, -0.2032967358827591, -0.09796964377164841, -0.25610122084617615, 0.12765109539031982, -0.16460783779621124, -0.11324708163738251, -0.5443412065505981, 0.0857594683766365, 0.014386842027306557, 0.020709384232759476, 0.1703166663646698, -0.3682323098182678, 0.015199074521660805, -0.13388550281524658, 0.07579798996448517, -0.02196713350713253, 0.007254796102643013, -0.05882282182574272, 0.10697317123413086, 0.22373752295970917, 0.23759794235229492, -0.1406247913837433, -0.21578823029994965, -0.07644657790660858, -0.3225117623806, -0.24621088802814484, -0.28960293531417847, -0.14405007660388947, -0.5443260073661804, -0.3678351044654846, -0.3755161762237549, -0.15901391208171844, -0.19874893128871918, -0.23878368735313416, -0.17102733254432678, -0.43284350633621216, -0.37030506134033203, 0.05711090937256813, -0.022016486153006554, 0.14402340352535248, -0.5435163974761963, -0.2718540132045746, -0.33788907527923584, -0.11177996546030045, -0.15152037143707275, -0.09940776228904724, 0.0003179242485202849, 0.23421062529087067, 0.13063263893127441, 0.07374344021081924, -0.1755136251449585, -0.18769562244415283, -0.2642347812652588, 0.051260437816381454, 0.012784577906131744, 0.10291612148284912, 0.0809536725282669, 0.45676079392433167, 0.40881866216659546, 0.18236342072486877, -0.009829431772232056, 0.08224145323038101, -0.23774363100528717, -0.062359102070331573, 0.1125338226556778, 0.01237262412905693, -0.08889482915401459, -0.2909809648990631, -0.020200025290250778, -0.11484511196613312, 0.11821836978197098, 0.07242877781391144, 0.16083718836307526, 0.17317725718021393, 0.2686176598072052, 0.37401390075683594, 0.02658262848854065, 0.019173502922058105, -0.27228742837905884, -0.20032164454460144, -0.3734413981437683, -0.3377618193626404, -0.16940419375896454, -0.025469684973359108, -0.06624775379896164, -0.1954389214515686, 0.1543090045452118, 0.01086249016225338, 0.29332655668258667, 0.1341482400894165, 0.16081032156944275, -0.05553492158651352, -0.14747217297554016, -0.12914735078811646, -0.1197567954659462, 0.09131497144699097, -0.10791601240634918, -0.16989077627658844, -0.14162127673625946, -0.1606145054101944, -0.10666587203741074, -0.06639813631772995, -0.14272980391979218, 0.15126746892929077, 0.08023855090141296, 0.16986285150051117, 0.19235895574092865, 0.20254983007907867, -0.06838726252317429, -0.1138022318482399, 0.10177452862262726, 0.09111850708723068, 0.1308973729610443, 0.021397056058049202, 0.06541987508535385, 0.040143370628356934, -0.14991000294685364, -0.17529132962226868, -0.07367914170026779, 0.1146867647767067, -0.0003512191469781101, 0.03767707198858261, -0.09126272797584534, 0.04493151232600212, -0.10313411802053452, -0.14830826222896576, -0.1219920739531517, -0.056925125420093536, -0.04588661715388298, 0.12756845355033875, 0.1725776195526123, 0.17693926393985748, -0.1364210546016693, -0.1708008348941803, 0.024306349456310272, 0.020188892260193825], [0.028415095061063766, -0.09817355871200562, 0.10607288032770157, 0.05670233815908432, 0.3378297984600067, 0.0036640637554228306, 0.06407905369997025, -0.2518109977245331, 